book 0.048733 -0.055083 0.14947 -0.11269 0.098791 0.54334 -0.51204 0.27882 0.11497 -1.3397 0.41168 -0.14742 0.38694 -0.0082414 -0.03349 -0.057761 0.022663 0.1058 0.010694 -0.077614 0.05708 0.54646 -0.24267 0.69789 0.31597 0.069026 0.033726 -0.10927 0.19253 -0.22226 -0.11307 0.43938 -0.60905 0.11049 -1.4081 0.37343 -0.38587 -0.31585 -0.2864 -0.33769 0.44443 -0.14013 -0.40929 0.59492 -0.076971 0.085855 0.11559 0.38694 -0.64595 0.14493 0.43865 -0.015834 0.20396 0.086829 -0.061201 0.11602 -0.62238 -0.36196 0.065653 -0.2465 0.1282 0.20121 0.57196 -0.13376 0.13502 -0.33951 0.24845 -0.29434 -0.02516 0.031967 0.70872 -0.31889 0.47452 -0.10868 -0.3137 -0.22795 0.2813 -0.18027 -0.12676 -0.36075 0.12622 0.27788 0.32232 0.049936 -0.16924 0.14825 0.19698 0.63745 0.079854 -0.16855 -0.3462 -0.22142 -0.15442 -0.10825 0.27252 0.27918 -0.155 0.60103 -0.22772 -0.71485 0.43519 -0.062915 -0.053097 0.0017236 -0.15239 -0.77073 0.54348 0.66172 0.37839 -0.39163 -0.0077152 0.15246 0.19383 -0.16702 -0.069283 -0.025211 -0.17964 0.04438 0.17526 -0.96582 -0.1045 0.05718 -0.41323 -0.3298 0.019055 -0.019054 -0.20477 -0.13634 -0.33033 -0.35216 0.29539 0.089735 -0.042084 -0.19264 0.022383 -0.20603 -0.086592 -0.024302 -0.49677 0.41228 0.34379 0.041339 -0.027497 0.13265 0.13722 0.019751 0.14309 0.32123 0.1659 0.44638 -0.0079488 0.0066521 -0.47416 -0.28036 -0.12137 -0.3882 -0.42015 -0.013072 0.18059 -0.22993 0.35411 0.10779 0.6287 0.36617 -0.38015 0.40377 0.18683 0.30018 -0.17885 0.22203 0.026145 -0.65242 -1.3714 -0.15032 0.023779 -0.16982 0.096136 0.25005 -0.092247 -0.15785 -0.0077791 -0.29607 -0.31178 -0.32043 0.30184 -0.078093 -0.62673 -0.056443 0.2064 0.21789 -0.40171 0.62907 0.21922 -0.37584 -0.48331 -0.021337 -0.591 0.038486 -0.66271 0.060358 0.6669 0.08867 -0.2916 -0.21274 0.36202 -0.35946 -0.40505 0.23657 -0.08588 -0.18173 -0.31783 -0.73384 0.20424 0.26053 -0.14952 0.2252 -0.45435 0.27584 0.079118 0.098751 -0.13459 0.16389 -0.83314 0.1374 0.16486 -0.132 -0.053984 0.40875 -0.062869 -0.43362 -0.21252 -0.39647 -1.0162 0.29091 -0.03824 0.017988 -0.13284 -0.28344 -0.45818 -0.18828 0.062213 -0.16897 0.01204 -0.38081 -0.81699 -0.21886 -0.68126 -0.083483 -0.02833 0.25576 -0.33616 -0.36663 -0.11254 0.094205 0.61923 0.13938 0.3527 -0.27793 0.45623 -0.317 0.14768 0.17775 0.029573 -0.33501 -0.0057215 -0.050497 -0.24139 -0.25869 0.13273 0.38003 -0.3212 -0.16492 0.55088 -0.023246 0.1446 0.1248 -1.3349 -0.29422 0.59184 0.14384 -0.057715 -0.034459 -0.22582 -0.16592 -0.10082 0.29078 -0.51788 0.11263 0.0020016 0.29779 -0.11647 -0.07208 -0.41821 0.39238 -0.01703 -0.031026 0.25428 0.51352 0.13667 -0.12639
car 0.46443 0.3773 -0.21459 -0.50768 -0.24576 0.08134 0.10145 0.25155 -0.36152 -1.603 0.28219 0.36653 0.44611 0.2795 0.047722 0.30087 -0.16226 -0.026055 -0.26815 -0.46282 0.25012 0.60389 0.15111 -0.062823 -0.096755 -0.30548 -0.11376 0.53914 0.10966 -0.70618 -0.66316 0.43559 -0.048631 0.27755 -0.48685 0.11938 -0.54538 -0.29563 0.03447 0.53187 -0.001588 0.41692 -0.20742 -0.037833 0.43333 0.047521 0.83507 -0.065088 -0.29974 0.0047139 0.12339 -0.5066 0.2587 0.21264 0.19132 0.54204 -0.11385 -0.42384 -0.27808 -0.15105 -0.62104 0.27678 -0.054974 0.018479 -0.11744 0.33029 -0.35251 -0.21953 0.05514 0.16971 -0.36445 0.36383 0.20496 0.66512 -0.2254 -0.30347 -0.52782 -0.66115 0.11774 -0.14438 0.33886 0.2297 0.63072 0.76929 0.02536 -0.13685 0.084254 0.32036 -0.10431 0.7672 1.0674 0.42885 0.03032 -0.63375 0.70705 -0.17671 -0.1077 -0.31877 0.063781 -0.57507 -0.40656 0.55837 0.72376 0.2645 0.20313 -0.43949 0.53094 0.075492 -0.26951 -0.4277 -0.13859 0.28341 0.13153 -0.32371 0.22816 0.43016 -0.015529 0.13276 0.048239 -0.038536 0.013813 -0.24567 0.4658 -0.61963 -0.39568 -0.21261 0.11121 -0.19519 0.32773 -0.25276 0.87512 0.4986 0.25747 0.46459 -0.097237 0.42509 0.0080811 -0.79669 0.19793 -0.060157 0.06048 0.20092 0.46373 0.29617 -0.31812 0.12548 -0.17667 -0.29347 -0.59183 0.43081 1.0006 0.46858 0.11257 -0.56533 0.54729 -0.43424 0.22738 0.21527 0.087824 -0.073562 0.5316 -0.36782 -0.42531 -0.066561 0.34648 -0.13677 -0.26654 0.099056 -0.052121 -0.61409 -0.0036171 0.32633 0.3905 0.029416 -0.1119 -0.2118 -0.15688 -0.29308 0.23114 0.13873 0.66445 -0.26318 -0.25518 0.29499 0.70132 -0.3239 0.42109 0.27316 0.15021 0.058074 0.24201 -0.62194 -0.40832 0.038272 -0.35372 0.013934 -0.25013 0.42916 -0.039463 -0.29794 1.0178 -0.41685 0.15442 0.19598 0.44718 -0.25764 0.13438 -0.084223 -0.14142 -0.16001 -0.32541 -0.19588 0.13934 -0.44924 0.20827 -0.15747 0.035537 0.37097 -0.15336 0.20401 0.35981 -0.26311 -0.27436 -0.41229 0.45533 0.77527 0.29339 -0.27392 0.45037 0.060015 0.081354 -0.53969 0.31872 -0.082837 0.77918 0.094676 0.75256 0.33377 -0.55349 -0.15661 0.20791 -0.13498 0.4756 0.1218 -0.16496 -0.65669 0.52394 -0.43666 -0.0087235 0.52565 -0.12011 -0.21406 -0.15253 -0.22775 0.59701 -0.64509 -0.445 0.40937 0.11943 0.034467 -0.32471 -0.47915 -0.25264 0.26818 0.059601 -0.51842 0.33124 -0.29623 -0.28343 -0.41471 -0.04505 -0.0017776 -0.37654 -0.023911 0.55602 0.2044 -2.2391 0.14986 -0.098345 0.18714 -0.19265 -0.0061057 0.39897 -0.22392 -0.42168 1.0727 0.29344 -0.47384 0.30169 -0.15307 0.19966 -0.40979 -0.10325 -0.04361 0.17564 0.65709 -0.09986 0.49107 0.28215 0.34554
player -0.29669 0.99762 0.20873 -0.13573 0.12 0.22275 -0.45971 -0.15415 -0.25379 -0.59144 0.088012 0.20196 0.14813 -0.50231 -0.14325 -0.039756 -0.41661 -0.60553 -0.1976 -0.37559 0.48387 0.099996 -0.61146 0.10597 0.024587 -0.24146 -0.25465 0.62946 0.23239 0.098558 -0.40202 -0.10925 -0.24572 -0.2965 -1.9822 -0.037066 0.69384 0.09607 -0.51402 0.52802 0.39695 -0.59472 -0.30366 0.11083 -0.099488 0.33778 0.79754 0.10697 -0.32167 0.2246 0.19145 0.27444 -0.43601 -0.14287 -0.043652 0.084029 -0.03535 0.22339 0.11585 -0.16494 -0.055663 -0.05115 -0.19111 -0.073951 -0.21748 -0.22936 0.048052 -0.16584 0.20806 -0.10963 0.75462 -0.010808 -0.25258 0.14668 -0.32251 -0.10023 -0.011562 -0.2071 0.055934 0.19467 0.29982 -0.17106 0.40341 -0.30294 -0.22693 -0.091655 -0.26983 -0.010429 -0.087985 0.1445 -0.045881 0.64697 0.066431 -0.21696 0.24857 0.60868 -0.090928 -0.50741 0.452 -0.5986 -0.59545 0.13309 -0.35593 -0.52959 0.21739 0.47793 0.51594 -0.18996 -0.28643 0.22077 0.41068 0.42839 0.038029 -0.082746 -0.1536 0.16427 0.55131 -0.18833 -0.33536 -0.16121 0.21618 0.33374 0.029295 -0.11432 0.044895 -0.062354 -0.16009 0.44239 0.11778 0.0065656 -0.31664 0.39325 -0.33653 -0.68302 0.40746 0.02632 0.5677 0.085304 -0.27766 0.20858 0.4878 -0.22264 0.032423 0.35502 -0.5052 0.096621 0.51172 0.11817 -0.70309 -0.14704 0.15225 -0.98509 -0.33342 -0.14298 0.37255 -0.33043 0.0051303 -0.065319 -0.47556 0.40013 0.23187 -0.086038 -0.28547 0.044971 0.31387 -0.3479 -0.40048 0.56673 0.071718 -0.23902 -0.25362 -0.075566 -1.0223 0.016215 -0.10631 -0.12991 -0.060845 -0.45725 -0.50902 0.49319 -0.067754 -0.22046 0.18369 0.35516 0.062414 -0.60605 -0.67808 0.0045481 -0.37745 0.63666 -0.16935 0.29721 0.58567 -0.2288 0.30106 -0.54414 0.15681 0.093794 0.21636 -0.12639 2.2943 0.088079 0.057593 -0.34243 -0.079975 0.13223 -0.097492 0.52529 -0.12092 0.21576 0.51234 0.1395 0.031307 -0.2228 0.17573 -0.14093 0.16476 0.31115 -0.17401 -0.0231 -0.60172 0.17153 -0.22554 -0.18412 0.14241 -0.088925 -0.42551 0.20116 0.24686 0.29106 0.35152 0.055741 0.50136 0.02759 -0.084207 0.48865 -0.11839 0.70455 0.021769 0.44369 0.50092 0.36134 0.50652 -0.17973 0.384 0.6628 -0.30656 0.2504 0.1728 -0.25153 0.61865 -0.3205 -0.68049 -0.37861 0.03237 -0.068709 0.2807 -0.26912 0.29822 -0.15667 -0.48102 -0.17051 0.16469 -0.0027741 0.30809 -0.25557 -0.28424 0.52312 -0.2111 -0.3552 0.048793 -0.097987 0.33844 -0.053207 0.42675 0.14432 -1.6392 -0.23603 -0.21729 0.17968 -0.30156 0.4158 0.026354 0.70171 0.18798 -0.20709 -0.51732 -0.13884 -0.52527 -0.48278 0.51049 0.28856 0.075313 0.31128 0.41311 0.41796 0.29225 -0.53699 -0.090443 -0.45571
ball -0.22694 0.47336 -0.11235 0.29225 0.2366 -0.14951 -0.030909 -0.22472 -0.31172 -1.0547 -0.047135 0.12985 -0.14791 -0.46792 -0.4158 0.37079 -0.66829 0.014515 0.24866 0.57954 -0.035824 0.29967 -0.19175 -0.33183 0.36218 -0.065551 -0.19755 0.23964 0.0010937 -0.013113 1.0534 -0.033252 0.37137 0.40116 -1.6888 -0.14 0.40547 0.30469 -0.54094 0.72119 -0.18948 -0.14652 -0.11462 -0.27824 0.67056 0.14907 0.50812 -0.24398 0.067811 0.34784 -0.31315 -0.25041 -0.0041038 -0.18943 -0.27287 -0.2241 -0.098089 0.089444 0.2217 -0.31694 0.33357 0.042892 -0.26729 -0.17506 -0.19156 -0.41124 0.27789 -0.60429 0.31365 -0.30689 0.46007 0.15726 0.18641 0.20346 0.27771 -0.045604 0.71416 0.34363 0.37644 -0.34208 0.33869 0.16438 0.41166 0.077412 -0.16065 -0.10733 0.16723 0.018414 -0.053232 0.030685 1.0248 0.42917 -0.57998 -0.26325 -0.27489 -0.44608 -0.26254 -0.1529 -0.073032 -0.62788 -0.020807 0.032181 -0.1077 0.011634 0.15271 0.27615 0.72365 0.13449 -0.29408 0.33621 0.2837 0.13504 -0.020772 -0.014593 0.017538 0.011863 -0.3738 0.2738 -0.28672 -0.53551 -0.022958 -0.24304 0.44299 -0.33149 -0.25284 0.1866 0.36675 0.2168 0.16162 0.055446 0.20751 0.39029 -0.34008 0.085407 -0.1081 0.032937 0.23584 -0.40101 -0.46571 0.028749 0.18595 -0.26678 -0.35514 -0.31949 -0.50937 0.41631 -0.47543 -0.47121 0.26037 -0.35753 0.24301 0.20629 -0.25722 -0.66249 0.50523 -0.30758 0.22882 -0.84619 0.61442 -0.18172 0.12022 -0.97142 -0.25827 -0.80284 0.3231 -0.29646 -0.32497 0.3542 0.30646 0.23769 -0.26805 -0.22266 -0.40748 0.119 0.36174 0.33201 -0.23505 0.70381 0.047723 -0.42947 0.49072 -0.32205 0.76406 0.32631 -0.21777 -0.096097 0.012615 -0.31877 0.023422 0.51286 0.70045 0.16215 0.33093 -0.35243 0.012403 -0.33056 0.17845 -0.11743 0.34374 -0.11056 1.972 0.45221 0.14378 -0.51976 -0.028636 0.20068 0.27395 0.016858 -0.55867 0.20469 -0.22251 0.60237 -0.12678 -0.095798 0.0092693 -0.32319 0.10096 -0.57415 -0.083739 -0.28231 -0.0084443 -0.049801 -0.22918 0.033998 -0.49476 -0.15589 0.75931 -0.14126 0.25017 0.12797 0.14458 0.083504 -0.23466 0.39459 -0.52364 0.32979 -0.60414 0.34245 0.012727 0.15223 0.38376 -0.1894 -0.4877 -0.19506 -0.55887 0.1085 -0.10513 0.53468 -0.05054 0.24969 0.23009 -0.38612 -0.48783 -0.75798 0.72187 -0.14986 -0.21395 -1.2376 -0.45001 -0.38047 -0.15577 -0.55359 0.046985 0.020752 -0.44483 0.22603 -0.62669 -0.091517 -0.085723 0.34041 -0.0121 -0.1539 -0.10233 0.1564 -0.0039856 -0.64987 -1.1216 0.16381 -1.2102 0.043566 -0.8861 0.18858 0.65522 0.49022 -0.02748 -0.48464 0.13869 -0.46637 -0.12024 0.13718 0.63139 -0.053838 0.62964 0.36903 0.405 -0.25691 0.42708 -0.59365 0.27687 -0.52739
web -0.7487 0.22066 0.21329 -0.084496 0.3348 0.39182 -0.18336 -0.079219 0.16892 -1.3804 0.28156 0.47585 0.32688 -0.142 -0.11845 0.24822 -0.33085 0.2408 0.13887 0.40776 0.20459 0.34334 0.3476 0.34948 -0.63052 0.096793 -0.13123 0.2183 -0.013903 0.15806 -0.1161 -0.13082 0.089005 0.40686 -0.88692 -0.063611 -0.45594 -0.4608 0.26441 -0.37692 -0.17122 0.35125 0.33076 0.9721 -0.082122 -0.5727 0.43376 0.010708 -0.26743 -0.0023586 0.34768 -0.13587 0.42014 -0.42047 -0.3135 0.068483 -0.060127 -0.44571 -0.88198 -0.60904 0.13351 -0.11492 0.30468 0.19202 0.37905 0.35386 0.66353 0.42161 0.38286 0.1524 -0.12554 0.20441 -0.13951 0.25374 -0.035221 0.18997 0.51585 0.0068945 -0.15315 0.26207 -0.67106 -0.38395 -0.23937 -0.55721 0.00026793 0.28387 -0.2273 0.12061 0.075169 0.089424 -1.0556 -0.1728 0.013969 0.058298 0.20372 0.19316 -0.44948 0.28739 0.76548 -1.3199 0.35941 -0.026285 0.53426 -0.40622 0.40323 -0.35378 -0.11511 0.21074 0.021244 -0.24369 -0.43695 -0.067406 -0.19836 -0.27065 0.17065 -0.34749 -0.077647 0.3296 0.12937 -0.047741 0.10116 9.1826e-05 0.90675 -0.1702 0.19981 -0.091496 -0.064266 0.30184 0.054743 -0.25433 0.029615 0.16152 -0.86009 0.12393 0.26229 -0.41749 0.15247 0.27359 -0.15946 0.42014 -0.36871 -0.21602 -0.037078 -0.31566 -0.17515 0.016781 -0.26852 -0.29859 -0.14572 0.18761 0.39319 -0.10104 -0.31548 -0.59023 0.23645 -0.32411 0.16537 0.19227 0.31859 -0.7375 -0.13538 0.14201 0.20306 -0.076611 -0.16606 -0.11853 0.090123 0.070141 -0.13242 0.3063 -0.48028 -0.61464 -1.2507 0.38354 0.34274 0.059085 -0.03515 -0.1145 0.0029785 -0.039995 -0.089278 -0.44653 0.67514 -0.11207 0.066578 -0.24876 0.0079718 -0.26948 0.42933 -0.31044 0.12632 0.10103 -0.51796 0.33332 0.089573 0.17135 -0.12696 0.17633 -0.097099 -0.25988 -0.052799 -0.56906 0.20061 0.31783 0.096817 -0.45843 -0.77274 -0.25791 -0.21882 0.19674 0.0087681 -0.34074 0.85434 -0.13124 -0.44628 0.28341 -0.21509 0.65669 -0.2 0.5338 -0.012946 0.53008 -0.36369 0.33304 0.44448 -0.031202 -0.19804 -0.17566 -0.058436 0.02793 -0.34445 0.082925 0.22101 -0.34984 0.81239 -0.45631 -0.031139 0.061963 -0.82343 -0.40392 0.44543 -0.045898 0.0094608 -0.49003 -0.33162 0.12645 -0.47886 -0.14565 0.060511 0.37031 -0.043422 0.57928 -0.25402 -0.10882 -0.10077 -0.34049 0.34829 -0.44786 -0.079524 -0.3384 -0.049461 -0.28452 -0.37588 -0.58474 -0.12875 0.26485 0.013614 0.072861 -0.23529 -0.27071 0.13074 -0.017068 0.43262 -0.55706 -0.37522 -0.093551 -2.0734 0.0038773 0.38157 -0.099174 -0.10621 -0.13887 0.15235 0.21785 -0.06203 -0.53493 -0.10381 -0.10151 0.0041447 0.061823 0.2707 -0.077514 -0.8606 0.29805 -0.15174 -0.16185 0.052965 0.44862 -0.46934 -0.31611
phone -0.83676 0.02264 -0.26628 0.066996 -0.080808 -0.059011 -0.4033 -0.64769 0.13826 -1.8536 -0.052263 0.39733 0.31059 -0.35486 0.43675 -0.35666 -0.58785 -0.23641 -0.44242 -0.14855 0.6067 -0.20749 0.061239 -0.12618 -0.35397 -0.53799 0.076128 0.26988 0.20476 -0.029956 -0.56326 -0.018098 -0.6328 0.080583 -1.4556 -0.16961 -0.39997 -0.56322 0.17458 0.065886 -0.31532 0.3409 -0.39951 0.65369 0.15508 -0.21009 0.42822 -0.35012 0.085638 -0.11859 0.47689 -0.078707 -0.22075 0.10929 -0.096483 0.054002 -0.14181 0.19796 -0.18045 -0.36265 -0.014547 -0.25569 -0.2287 0.43371 0.11293 0.013793 0.062204 0.53973 -0.045028 0.060697 0.030739 0.099317 0.23463 0.38278 0.23335 0.30506 -0.17692 -0.32007 -0.30721 -0.053576 0.15375 0.026483 0.20283 0.49023 -0.055638 0.13391 -0.83566 0.22102 0.63061 0.070702 -0.25442 0.19253 0.036107 0.13495 0.50216 -0.17864 -0.47337 0.077172 0.52401 -1.0304 -0.097647 0.0086465 -0.085165 -0.24212 -0.33183 -0.27228 0.82594 0.10419 -0.76113 0.27013 -0.19451 0.048645 -0.2831 -0.06955 0.49975 -0.26029 -0.38416 -0.10018 0.077935 -0.02875 0.12683 -0.30657 0.47648 -1.1656 -0.17341 -0.20736 0.1591 -0.12061 -0.3017 -0.44249 0.43662 0.33365 -0.21498 0.30954 0.041432 -0.20484 0.78401 0.15369 0.43017 -0.30552 -0.13096 -0.40072 0.27158 0.18101 -0.7509 0.030758 -0.070545 -0.25635 0.26579 -0.24258 0.59939 -0.35006 0.41524 -0.2704 -0.46394 0.22124 0.56229 0.13928 -0.27605 -0.18184 -0.14083 0.14165 0.24389 -0.0147 0.011785 0.50719 -0.11575 -0.24606 -0.09789 0.28466 -0.59483 0.20953 -1.031 0.58163 0.016852 -0.23416 0.089339 0.042269 -0.22984 -0.10775 0.044413 -0.23736 -0.13608 -0.11918 -0.6548 -0.19871 0.28461 0.39774 -0.18316 -0.63542 0.40964 -0.0084677 -0.20511 -0.34872 0.14818 0.22179 -0.55505 -0.14312 -0.53849 -0.35587 0.2881 0.13352 0.41783 0.092798 0.31248 -0.50168 -0.32329 -0.0049135 -0.23851 -0.35951 -0.14495 0.073095 0.27094 -0.45089 -0.3186 -0.065525 -0.0040442 0.37139 -0.30785 0.92653 0.36394 0.182 0.31018 0.24761 0.76145 0.4474 0.023041 -0.73861 0.092204 -0.22434 -0.0092131 0.095407 -0.1823 0.37275 0.45473 -0.33263 -0.1652 0.30943 0.099958 -0.19943 0.37124 0.26365 0.41526 0.17993 0.53914 -0.2179 0.039027 -0.50629 0.28302 0.21265 0.66273 0.22864 -0.38162 -0.10262 0.12739 0.043904 0.50605 0.6924 -0.17854 -0.004673 0.062543 -0.46399 -0.13503 0.4296 0.0091672 0.023894 0.30454 -0.13092 -0.55037 -0.016595 -0.38787 0.26279 -0.4611 -0.48115 0.20404 0.15355 -1.9748 0.31712 -0.23154 -0.59819 -0.68988 0.17071 -0.14022 -0.43718 -0.55124 -0.10043 0.44218 0.13766 -0.14821 0.29898 0.19834 -0.12393 -0.10039 -0.51767 0.1613 -0.19433 0.11298 0.18114 -0.26827 -0.0038284
van 0.16976 -0.49576 -0.4419 0.27587 0.0077253 0.087989 -0.073498 -0.87006 -0.70266 -0.5169 0.45516 -0.38958 -0.65182 -0.3711 -0.18673 -0.22453 1.3101 -0.1176 0.46725 -0.26643 1.3008 -0.20331 0.40699 -0.36044 -0.28626 0.5845 0.47638 0.48687 0.048979 -0.36988 0.12288 0.36748 0.63308 0.3968 -0.53889 -0.03505 0.14087 -0.031578 -0.23186 -0.059918 0.49155 -0.048538 0.04344 -0.3866 0.65774 0.48257 0.73957 -0.27063 0.26031 0.40485 0.25221 0.62904 0.088431 0.50322 0.41555 0.55628 -0.56382 0.54634 -0.68687 0.11247 -0.27827 0.25721 -0.048895 -0.43937 -0.065537 -0.48419 0.12281 -0.80668 -0.14837 -0.20356 -0.86299 -0.21619 0.61858 0.4321 -0.54428 -0.10105 0.7988 -0.53376 0.34529 -0.35864 0.31177 0.23445 0.3424 -0.20303 -0.077137 -0.74638 0.85246 0.61238 -0.66041 -0.061858 -0.11246 0.11449 -0.024007 -0.15678 0.58871 -0.2658 0.10201 -1.0808 -0.24565 -0.6773 -0.12276 -0.037409 0.52602 0.44104 -0.65805 0.11481 0.42826 0.75874 0.21573 0.35371 0.39526 0.060434 0.27911 -0.49649 0.030643 0.87663 0.39437 -0.36121 -0.045341 -0.25006 -0.32176 -0.33823 -0.32578 -0.20083 -0.22403 0.045249 0.51135 0.76543 -0.18479 -0.068863 0.52116 -0.35055 0.15788 0.91702 0.15747 -0.57748 0.61702 -0.22527 0.020546 0.32572 0.16598 0.58109 0.92311 0.0099698 -0.24986 -0.036036 0.53711 0.41086 -0.53265 0.54566 0.7474 0.62896 -0.12728 -0.57742 0.68163 0.23614 -0.25723 0.98751 0.11937 0.1265 0.25226 -0.24394 0.35813 -0.16646 0.38639 0.62247 -0.25183 0.040867 -0.0069319 0.16567 1.0633 0.554 -0.55121 -0.48473 0.56296 0.089673 0.34188 0.10678 -0.012713 -0.29998 -0.03375 -0.078773 -0.49698 -0.75535 -0.37482 -0.63143 -1.0954 -0.14367 0.26739 0.98511 0.4646 0.27818 0.30494 0.29034 -0.4344 -0.44569 -0.23178 -0.31021 0.18281 -0.18085 0.95833 -0.14744 -0.068844 -0.83297 0.49988 -0.38064 -0.46103 0.15927 -0.53172 0.66704 0.025027 -0.32287 0.56142 -0.43673 0.34399 -0.16646 0.62419 0.30758 -0.47049 -0.88857 1.1697 0.29879 0.022791 -0.01427 -0.14699 -0.45521 0.1276 0.10047 0.37769 -0.36966 0.29975 0.35381 -0.21758 -0.0051769 0.22176 0.2603 0.032428 0.55813 -0.31365 -0.1058 0.26808 0.58311 -0.37031 0.26522 0.0015952 0.46696 0.19008 -0.5843 0.43709 -0.47562 -0.067608 -0.25422 0.036456 0.48938 0.50831 -0.82721 -0.11156 -0.2634 0.040407 -0.37245 -0.099394 0.23387 0.35888 0.28874 0.040866 -0.44 -0.33096 -0.41113 -0.94102 -0.48709 -0.61004 0.11222 -0.70076 -0.00052918 0.41511 0.42196 -0.79593 -0.18161 -0.76749 0.61833 -0.41825 -0.048671 0.30363 -0.23947 -0.047508 0.70287 0.22161 0.58796 0.17929 0.392 0.80782 -0.26756 -0.1069 -0.74148 0.14083 0.41208 0.49952 -0.085774 -0.09816 0.35384
train -0.037208 -0.066545 0.15115 0.20733 -0.54988 -0.34518 0.2834 0.27022 -0.5088 -1.0394 -0.084626 0.23702 0.12489 -0.35922 0.23249 0.18752 0.0068386 0.10559 -0.15962 0.16055 -0.085753 -0.24734 -0.2261 0.33685 -0.25894 0.31717 0.21515 0.74309 0.1979 0.021227 0.61479 0.26553 0.07976 -0.24881 0.06592 0.12981 -0.25408 0.03824 -0.35604 -0.32126 -0.16157 -0.32439 -0.24917 -0.48538 0.24629 0.40239 0.77611 0.35912 -0.093163 -0.56297 0.36385 -0.13283 -0.54324 -0.10297 -0.064387 0.46616 0.16046 -0.2098 -0.57115 0.18474 -0.38367 0.36445 0.33702 -0.18333 -0.34235 0.2952 -0.35158 -0.38302 -0.37233 -0.091789 0.32227 0.74101 0.0058726 -0.3944 0.36692 -0.2807 -0.062464 0.47065 -0.46306 -0.46929 -0.12082 -0.26196 0.14582 -0.095196 0.19254 0.12848 0.26423 -0.1729 -0.22615 0.97852 0.68577 0.75685 0.38375 -0.80246 0.38168 -0.42698 -0.059474 -0.35319 0.20814 0.18333 -0.48246 0.17623 0.34715 0.072314 0.614 -0.39507 0.18201 -0.24474 0.15938 0.27636 -0.17779 -0.16898 0.36007 0.20155 -0.11385 0.22808 0.26473 0.91927 -0.014439 0.23335 -0.061812 -0.35859 0.22861 -0.68287 -0.29856 -0.0082701 0.054037 0.50879 -0.039338 -0.1151 0.26896 0.12615 0.39685 0.17952 -0.057622 -0.092012 -0.36822 -0.21685 0.38764 0.21779 -0.054767 -0.0066571 -0.59126 0.055931 -0.35438 -0.4271 0.12342 -0.12744 -0.23917 -0.096023 0.70139 0.22881 0.67658 -0.0095265 1.4098 0.35996 0.31915 0.10252 0.058811 -0.22879 0.50346 -0.31664 -0.045476 -0.53157 0.2284 0.35297 -0.046187 -0.021077 -0.13007 -0.13725 0.17059 -0.057376 0.46945 -0.21053 -0.19357 0.056831 -0.074083 -0.20106 -0.37111 -0.093481 0.11301 -0.093582 -0.53763 0.098462 0.26987 0.33083 -0.33252 0.34223 0.29473 -0.78249 0.29528 -0.26601 0.28129 0.091495 -0.22845 -0.33429 -0.61063 -0.23515 0.12063 -0.28993 0.9213 -0.16497 0.31311 0.11759 -0.15121 -0.31124 -0.07801 0.17275 0.17785 -0.73449 -0.2224 -0.63445 0.19946 0.43619 0.40355 -0.66949 -0.18977 -0.11296 -0.12397 0.098508 0.97274 0.075722 0.18518 -0.61403 0.60613 -0.64075 -0.0035438 -0.51147 -0.15362 0.4816 -0.19733 -0.37129 -0.024329 -0.3885 0.6682 0.35067 0.52628 0.75115 -0.46395 -0.68918 0.0127 -0.26651 -0.11244 -0.28538 0.056248 -0.45361 0.20624 -0.12654 0.086825 0.37277 -0.60518 0.069185 0.18004 0.45202 0.68578 -0.44621 0.10332 0.22851 0.50332 0.031189 -0.21554 -0.068521 0.6732 0.57746 0.3023 -0.17233 0.04879 -0.41575 0.047974 -0.070041 -0.31752 -0.58365 0.36658 0.39735 0.063238 -0.16127 -2.1413 0.14167 0.11371 0.23592 -0.36878 -0.32378 0.28333 0.014445 0.010855 0.29021 0.23568 0.61793 -0.32671 -0.18965 0.41281 -0.64252 -0.65501 -0.021422 0.0086554 0.56191 -0.28474 -0.060458 0.44498 0.10385
bridge -0.028964 -0.76821 0.014601 -0.85858 -0.084642 0.23051 0.28174 -0.19578 -0.19693 -1.0038 -0.18679 0.064034 0.05888 -0.22349 0.47123 0.036875 0.16439 -0.019219 0.0071701 -0.18643 0.1179 -0.29399 0.20165 -0.090708 -0.39317 0.046279 -0.4515 -0.050888 0.14319 0.64337 0.78157 0.29082 0.43499 0.63145 -0.094731 0.58463 -0.093254 -0.31932 0.7925 0.1872 -0.23441 -0.033825 -0.86307 0.54281 -0.061089 0.35994 0.40169 0.19958 -0.24847 0.094091 -0.16381 0.28023 -0.32018 -0.50602 0.061398 0.46023 0.095472 -0.098885 -0.4156 0.65775 0.5956 -0.12761 0.052797 -0.64797 0.61843 0.016537 -0.23005 0.4035 -0.13109 -0.15079 -0.24978 0.26058 -0.017961 -0.33972 -0.1082 0.31085 0.24468 0.60372 -0.40064 -0.37873 0.11693 -0.52615 0.54423 -0.73889 -0.24111 -0.30328 0.087832 0.37566 -0.010517 0.32937 0.80369 0.38405 0.6397 -0.046383 -0.11024 0.29577 0.14882 -0.80463 -0.019643 -0.035944 -0.35457 -0.030283 0.38551 -0.16257 0.52876 0.58794 0.59983 -0.13089 0.17476 -0.33075 -0.14289 -0.061738 0.31516 -0.24265 -0.37195 -0.26754 -0.17626 0.44365 -0.16412 -0.45016 -0.077255 -0.46834 0.036749 -0.1575 0.087071 -0.49171 0.15196 0.22224 0.17271 -0.3351 0.24358 0.71413 0.50937 0.32088 -0.1988 -0.44802 0.062504 -0.39164 -0.29887 -0.49208 -0.4789 0.097059 0.14687 0.22073 -0.18174 -0.01695 0.71018 0.21778 -0.80664 -0.49312 0.1835 0.39661 0.060959 -0.97733 1.0575 -0.1327 0.16399 -0.26674 -0.5588 0.13432 0.49816 0.13788 0.58055 -0.65496 -0.2466 0.1608 -0.14405 -0.28559 -0.38592 -0.1732 -0.077132 -0.063805 0.49347 -0.36818 0.54291 0.018146 -0.99724 -0.68747 -0.2212 -0.29422 0.49888 0.24657 -0.034153 0.095404 -0.14731 -0.32959 -0.58279 0.003449 0.49406 0.63822 -0.15439 0.9283 0.060582 0.19442 -0.61065 0.028518 0.38588 -0.6121 0.30519 0.016167 1.132 0.43667 -0.019021 -0.34102 -0.51296 0.24667 0.25999 0.078992 0.7934 0.5607 0.24346 0.42805 0.31421 -0.13687 0.028659 -0.14884 -0.52066 -0.050643 0.18765 0.19731 0.63593 -0.23309 0.66929 -0.21507 0.48238 0.081824 0.3787 -0.10252 -0.10135 0.09712 -0.49067 0.15836 -0.73891 -0.08948 0.73622 0.19677 -0.16711 0.23016 0.092244 -0.21825 0.053722 -0.075544 0.46418 -0.64517 -0.34798 0.019092 0.1758 0.34511 0.24972 0.10963 0.26259 0.075114 0.47571 -0.21137 -0.0023056 -0.4877 -0.12727 0.37951 0.58702 -0.086408 -0.16558 0.34112 -0.034671 -0.36341 -0.068377 0.19624 0.44343 -0.55615 -0.24478 -0.47458 0.36796 -0.010268 0.73367 -0.02212 -0.071279 -0.14216 -1.2687 -0.476 0.12972 0.41584 -0.23252 -0.33372 0.8379 -0.87209 -0.2292 0.47075 -0.2904 -0.18575 -0.12447 -0.34839 -0.001203 -0.25617 -0.35724 0.71367 0.053684 0.19736 0.35155 0.15432 0.076667 0.47699
bus 0.14822 -0.60022 0.22613 -0.21022 -0.17283 -0.13195 0.24592 0.17814 -0.064567 -0.8962 -0.68388 -0.036868 0.19367 -0.23229 0.60036 0.38259 -0.033599 -0.21816 -0.14735 -0.4909 -0.21016 -0.15241 -0.018773 0.01873 -0.1713 -0.0074645 -0.57133 0.50893 -0.2042 -0.37299 0.66467 0.31496 0.35763 0.2154 -0.16469 0.074403 -0.52319 -0.42386 -0.39825 0.16471 -0.045647 -0.020086 -0.083139 -0.5742 0.24685 0.34281 0.69048 -0.048247 -0.097276 -0.72689 -0.31496 -0.023692 -0.52892 0.23968 0.35578 -0.015941 -0.44998 -0.095123 -0.46226 0.14423 -0.32262 0.16818 0.079061 -0.25941 -0.17119 0.69086 -0.29274 -0.42699 -0.038065 0.1375 -0.037255 0.26598 0.50304 -0.24123 0.16936 -0.058232 0.051439 -0.15973 0.067744 -0.32709 -0.37132 -0.53417 0.483 0.070346 0.046934 -0.11341 -0.035402 -0.28817 0.14224 1.0233 0.57069 0.35778 0.29187 -0.71508 0.18075 0.23272 0.23469 -0.28209 0.23938 -0.2433 -0.20732 0.29383 0.63898 -0.22474 0.20249 0.20292 0.98209 0.29551 -0.012421 0.065041 -0.064249 -0.082404 0.5986 -0.15441 0.28549 -0.059635 -0.028892 0.17044 -0.31801 0.37184 -0.29469 -0.53125 0.41156 -0.62556 -0.57396 -0.2204 0.19994 0.31579 0.1611 -0.52681 0.36255 0.29632 0.63636 0.32282 0.16223 0.22062 0.16364 -0.26504 0.34057 0.16355 -0.38883 -0.28362 0.19593 0.31218 -0.80655 0.24608 0.4458 0.11585 -0.010622 -0.062775 0.64666 0.25096 0.84772 -0.072991 0.36464 -0.19748 0.18973 -0.040858 0.44445 -0.16096 0.17596 -0.15271 -0.23337 -0.31708 0.2094 0.214 -0.28242 0.36903 -0.26011 -0.16665 -0.40133 -0.19458 0.57946 0.49141 -0.54268 0.23524 -0.3403 -0.23627 0.20118 -0.10041 -0.27284 -0.33362 -0.09302 0.10536 0.21213 0.22773 -0.038106 0.26543 0.25857 -0.13102 0.41592 -0.09757 0.23423 -0.41573 -0.62525 -0.30484 -0.10326 -0.088723 -0.091432 0.15145 0.67503 -0.34324 0.39034 -0.21944 0.16631 -0.5166 -0.19707 -0.093644 0.3641 -0.16447 -0.96552 -0.4097 -0.2309 0.12408 0.11189 -0.45631 -0.051998 -0.0379 -0.12535 0.18605 1.0236 0.49152 -0.21698 -0.10576 0.85023 -0.17334 0.22324 -0.78585 -0.1382 -0.24876 -0.22311 -0.40433 -0.14436 -0.51802 0.91132 0.5277 0.77029 0.81531 -0.79686 -0.39351 0.38236 0.1203 -0.1027 -0.63183 0.047325 -0.15296 0.58927 -0.55075 0.3118 0.090457 -0.18564 0.0983 -0.14423 0.14476 0.37997 -0.50554 -0.14841 0.49737 0.10332 -0.41922 -0.30872 0.018226 0.71589 0.89567 0.59442 -0.6867 0.22016 -0.4855 -0.29461 0.38661 -0.2454 -0.17201 -0.20475 0.20649 0.61509 -0.27732 -2.1394 -0.11415 -0.12648 0.58212 -0.1907 -0.25279 0.52393 -0.51231 -0.7568 0.67596 0.33118 0.33685 0.40599 -0.056694 0.50836 -0.18065 -0.72307 -0.081516 0.32178 0.74172 -0.46137 -0.26075 0.29964 0.3998
basketball 0.14284 0.51405 0.62334 0.070032 -0.090456 0.6843 -0.19394 0.1818 0.39592 0.24266 -0.32435 0.45174 0.069034 -0.1096 -0.088895 0.38235 -0.060599 -0.65841 0.096805 -0.62569 0.21881 0.14107 -0.22473 0.2746 0.12004 -0.11692 -0.53319 -0.040401 0.61825 0.0092204 0.30976 -0.46119 -0.073626 0.27834 -1.7918 0.83781 0.48941 -0.12837 0.57322 -0.092516 0.51371 -0.77041 -0.43148 -0.26041 0.39062 -0.22066 0.36768 0.42296 0.0036284 -0.077525 -0.21669 0.56503 -0.50772 -0.39789 -0.19455 0.25036 -0.073335 0.68193 0.83199 -0.33002 0.015947 0.13098 -0.082343 -0.47818 -0.23975 -0.34871 -0.49687 0.42085 -0.22084 -0.4052 0.30729 0.055113 -0.35416 -0.092864 -0.80042 -0.13265 0.34301 0.0091951 0.36012 -0.19793 0.36028 0.034753 0.20305 -0.38979 -0.14161 0.12786 0.17258 -0.27843 0.19848 0.43138 -0.13323 0.51418 -0.2853 0.062836 -0.14351 -0.029172 -0.037157 0.029108 0.033468 -0.6198 -0.16285 0.2438 0.038901 0.19931 0.24169 0.34943 0.6224 -0.63114 0.44322 0.53839 -0.27989 -0.21902 0.058486 -0.39877 0.29635 0.18219 0.30971 -0.42836 0.20003 0.21617 0.34019 0.2547 0.49415 0.035847 -0.24989 0.60514 -0.15388 0.3734 -0.063875 0.25671 -0.51992 -0.056041 -0.15707 -0.11151 0.19091 -0.24721 0.033805 0.24387 -0.89338 0.24475 0.11377 -0.18011 0.65512 -0.15538 -0.30155 0.016225 0.17907 -0.34403 -0.24237 0.14406 0.41467 -0.30112 -0.30259 -0.025353 0.021541 -0.32122 -0.34626 0.56666 0.34737 0.40446 0.28926 0.26319 -0.042912 0.029732 -0.0093685 -0.48165 -0.27743 0.60552 -0.32392 -0.19129 0.25114 0.3794 -1.5361 0.35189 -0.042368 0.25963 0.27557 -0.052349 0.337 -0.015363 0.25343 -0.12858 0.06392 -0.048108 -0.0071071 -0.28608 -0.39131 0.19693 -0.76291 -0.093809 0.32504 0.1102 0.21224 -0.45834 0.00011242 0.12245 0.41736 0.068061 0.20209 0.23164 2.0487 0.093865 -0.078242 0.062407 -0.23229 -0.38635 0.036344 -0.022689 0.030694 0.35729 -0.053568 0.88488 -0.71815 0.31698 -0.29495 0.26003 -0.09783 -0.15315 -0.3523 -0.91948 0.23875 -0.29439 0.30386 -0.33497 0.23447 -0.10099 -0.23338 0.14496 -0.42464 -0.02478 0.42396 0.047109 0.73096 -0.7982 -0.56417 -0.17354 0.14764 0.31609 -0.0032348 0.26376 0.53138 0.49727 0.011103 -0.26004 0.25154 -0.23103 -0.83319 0.062625 -0.20988 -0.093497 0.19095 0.080393 -0.37145 0.029558 -0.26331 -0.62192 0.68278 0.09132 -0.029772 -0.10591 -0.62966 -0.32584 0.41226 -0.26121 0.44665 -0.2267 -0.64301 0.45639 -0.62606 -0.52344 -0.18591 -0.27534 0.28378 -0.60389 1.0602 -0.20273 -1.5327 -0.30539 -0.48606 0.56691 -0.13614 -0.38942 0.029044 0.4663 0.42761 0.054273 -0.35676 0.16267 -0.28373 -0.543 0.22638 0.21095 -0.34544 0.50449 0.44646 -0.40162 0.40037 -0.763 0.024886 -0.25128
table -0.25609 0.50527 0.67024 -0.48323 -0.16092 0.40552 -0.57753 -0.61727 0.27748 -1.1638 -0.27712 -0.020295 0.028775 0.22266 -0.1247 0.21623 -0.34954 0.43872 -0.11429 -0.52088 -0.098776 0.36174 -0.10907 -0.33723 0.12478 -0.17476 -0.02806 0.29812 0.452 -0.15253 -0.083357 0.034761 -0.24092 0.32749 -1.4545 0.48006 0.33196 -0.15403 -0.69421 -0.27767 -0.11927 -0.43105 -0.4729 0.37034 0.34169 -0.053254 0.15647 -0.10772 0.016518 0.38009 0.34295 0.24507 -0.38753 -0.54323 -0.4624 0.33051 -0.55911 -0.27595 0.081592 0.63524 0.49964 -0.43429 0.067199 0.25352 -0.50933 -0.74638 -0.2585 0.23269 -0.25116 -0.10639 0.18584 0.12072 -0.30594 -0.38205 -0.78894 0.19583 -0.24714 -0.074624 -0.15969 -0.44592 -0.081552 0.31978 0.10503 0.0054446 0.26554 -0.75734 -0.5336 0.29012 -0.064118 0.07189 -0.1002 0.18323 -0.36721 0.051837 0.25615 0.11508 -0.20354 -0.024862 0.17289 -0.56787 -0.19497 0.16599 -0.02274 -0.12867 -0.162 -0.17048 -0.10432 -0.2535 0.22045 -0.45661 -0.13745 -0.030224 0.043699 -0.18161 -0.45375 0.060966 -0.56726 -0.039768 -0.26703 -0.063974 -0.26012 0.29441 0.30543 0.32773 -0.31902 0.31058 0.20736 0.020729 -0.34873 -0.16663 -0.11728 0.33342 0.41227 -0.085252 0.52065 0.19647 0.37802 0.29248 -0.44314 0.19523 0.082371 0.2787 0.13965 -0.069098 -0.11195 0.52143 0.43849 0.031215 0.089993 -0.20984 -0.46075 0.32158 0.31261 -0.081539 0.064099 0.020494 -0.068913 0.022847 -0.018045 0.47409 0.2556 0.28942 0.005349 0.22184 0.57588 0.27085 0.029017 -0.097821 0.13408 0.082636 -0.65026 0.37041 -0.1697 -0.52203 -0.075045 -0.40086 -0.1477 0.97495 -0.09886 -0.16054 -0.09224 -0.3793 0.36054 -0.10381 0.44901 0.082892 -0.079977 0.084356 0.042248 -0.096421 0.69179 0.49886 0.40619 -0.0778 -0.14788 0.052709 -0.097877 0.070828 -0.56296 0.052218 0.9761 -0.55365 -0.044514 -0.18417 0.30776 -0.63629 -0.10329 -0.73685 -0.37941 -0.057033 -0.34358 -0.26227 -0.21409 0.18885 0.54081 0.54312 -0.038653 -0.33017 0.16679 0.10521 0.23586 0.13128 -0.0023244 -0.14755 -0.6544 0.22532 0.27533 0.44426 -0.52244 -0.12012 0.061679 -0.12356 0.35028 0.033956 0.57603 0.26243 -0.31625 0.027057 0.068562 0.36305 -0.15707 -0.18638 -0.15245 0.51385 0.0030514 0.36363 -0.54279 0.544 -0.33033 -0.018278 0.034519 -0.3843 0.48172 -0.24719 0.17587 0.34042 -0.25866 0.11471 -0.42484 0.77577 -0.47343 -0.24318 0.66153 0.11481 0.027112 0.079763 -0.10656 0.30877 0.14645 -0.12334 -0.79755 0.082979 -0.10763 0.25616 0.60343 -0.2659 -1.6927 0.16208 0.27091 -0.28799 -0.22056 -0.14432 -0.59781 -0.55899 0.62319 0.10158 -0.069048 -0.35173 0.081867 -0.19861 -0.35076 0.29545 -0.18482 -0.10118 0.25697 -0.40751 0.69387 -0.4472 0.18864 0.18275
machine -0.20598 0.84199 0.32655 -0.5508 -0.71978 0.4463 0.65963 -0.083757 0.31733 -1.6928 0.18901 -0.56237 0.6096 -0.10732 0.36826 -0.053698 0.041387 -0.28029 -0.43242 0.36917 0.56726 0.39637 0.15227 -0.11159 0.20497 0.25431 0.57174 -0.24691 0.26312 -0.076046 -0.26779 0.048289 0.31213 0.51489 -0.13457 0.53894 0.15186 -0.21444 -0.2392 0.29854 -0.073615 0.44198 -0.13692 -0.22565 0.46039 0.1428 0.70316 -0.23107 0.63721 0.17203 0.21067 0.32497 -0.02218 0.5431 -0.88348 -0.53835 -0.044051 -0.12978 0.31842 0.31618 0.22351 0.021186 -0.05058 0.0056521 -0.021808 0.61592 -0.71762 0.20032 0.2207 0.32781 0.27289 0.37679 0.46449 0.12419 0.014284 0.36029 -0.11143 0.037234 0.51566 0.029482 -0.27295 0.28053 0.42168 -0.40937 -0.15299 -0.24663 -0.40268 0.022727 0.27554 -0.44934 0.53419 -0.18655 -0.5221 0.0033804 0.28652 0.27614 -0.55415 -0.16782 0.72316 -0.95372 -0.61812 0.91101 0.087874 -0.43011 -0.34076 -0.58445 0.15755 -0.24375 -0.65069 0.66678 0.004366 0.10352 0.1846 0.31437 0.056117 -0.024739 -0.92971 0.28894 -0.02116 -0.03804 0.49972 0.4451 0.083204 0.0050996 -0.22987 0.044749 0.36858 0.086941 -0.30659 -0.019477 -0.18907 0.66207 0.032227 -0.025722 -0.11113 0.35603 0.13813 -0.28296 1.1331 0.43695 -0.42625 -0.20754 -0.582 0.19673 0.1925 -0.011318 0.78465 -0.041893 0.038047 0.10748 0.24656 -0.074986 -0.26512 -0.41326 0.62577 -0.15728 0.28212 0.010547 0.19357 0.20958 0.23703 -0.21324 0.049444 -0.030691 0.23544 0.80417 0.43634 0.37398 0.23389 -0.13601 -0.25143 0.13649 -0.1608 0.14541 0.13987 -0.61001 -0.50786 0.20087 -0.42051 0.13003 0.44941 0.5801 0.44585 0.12496 -0.12382 -0.22889 0.36129 0.045625 0.29654 -0.42275 0.36246 0.24453 0.015604 -0.046257 -0.09963 -0.31024 -0.35703 -0.11812 -0.020418 0.018813 0.41287 0.031822 0.559 0.29602 -0.16438 -1.1411 -0.16554 0.08988 -0.29066 -0.18343 -0.11152 0.39951 -0.20129 -0.23182 0.054877 -0.4636 -0.38924 0.47487 -0.2617 0.54911 -1.0563 0.33313 -0.17137 0.065237 -0.15178 0.094147 -0.029424 -0.4867 0.35417 -0.2801 0.16393 0.12743 -0.18001 -0.33708 -0.14585 -0.079859 0.10068 -0.285 -0.36448 0.071626 -0.03243 -0.22275 -0.19296 -0.59766 -0.50414 -0.2909 -0.25143 -0.11063 -0.29916 -0.40074 -0.018644 0.13172 0.12749 0.28276 0.99677 -0.30428 -0.27438 -0.11842 0.24813 -0.34 0.029349 -0.23669 -0.34933 0.057323 0.43382 0.056372 -0.7298 0.29759 0.14394 -0.11176 -0.69263 0.0017064 0.17186 -0.22473 -0.30207 0.25126 -1.5733 0.14275 -0.83605 -0.168 0.046081 -0.25342 0.25271 0.032683 0.6167 0.38031 -0.31275 -0.11898 -0.05659 -0.5121 -0.12607 -0.37991 0.0078193 0.45125 0.15116 0.73489 -0.45675 -0.075203 -0.18286 0.51724
fly 0.38866 -0.056074 -0.38375 -0.027497 -0.15096 0.63417 -0.15396 0.39134 0.41153 -0.95287 0.86955 -0.58866 -0.49197 -0.91573 0.2048 0.16008 0.18267 0.27362 0.21193 0.17589 -0.13662 -0.0018012 0.089953 0.0043373 0.23773 -0.095502 -0.043136 0.089699 -0.2382 0.20684 0.19438 -0.51839 -0.24306 -0.37777 -0.56176 -0.26968 -0.42863 0.11097 -0.5722 0.52187 -0.58787 0.69254 -0.014643 -0.07863 -0.04155 0.1204 0.23233 0.12423 0.64058 -0.051455 0.088352 -0.57457 0.052668 0.1022 -0.84363 -0.019501 -0.097325 -0.23706 0.073594 0.29899 0.16805 -0.43109 0.022256 0.00062274 -0.17427 -0.054264 0.52288 0.17244 0.22853 0.4931 0.32947 -0.053203 0.066846 0.34859 0.091958 0.36509 0.065952 0.63955 0.46226 -0.12559 -0.50957 -0.25585 -0.45556 -0.13923 -0.43744 -0.34459 0.30243 -0.15356 0.055717 -0.285 0.52578 0.65771 -0.43933 -0.31986 0.079944 0.18479 -0.42055 0.6515 -0.38676 0.42925 0.22616 -0.2472 0.12296 0.4247 0.21355 0.053285 0.64873 -0.34546 0.072264 0.29838 0.15961 -0.23678 -0.55462 -0.076814 0.11294 -0.027414 -0.24042 0.16344 0.074893 -0.41293 0.14242 -0.17229 0.39575 0.035941 -0.18531 0.30079 0.23335 -0.11992 0.60491 0.12823 -0.22848 0.057814 0.18666 0.3267 0.18931 0.013909 -0.57459 -0.28062 -0.59897 -0.45888 -0.24441 -0.25612 -0.14851 -0.47963 -0.82016 -0.20733 0.055476 -0.15585 -0.18499 0.12029 0.58905 -0.16607 0.19691 -0.084095 0.75463 -0.2292 -0.48834 0.054301 0.37635 0.16423 0.27261 -0.48078 0.23724 0.089622 -0.071068 -0.24748 -0.0057401 0.38484 0.039435 -0.055545 -0.78428 -0.64535 0.24718 -0.18299 -0.019826 0.022248 0.084231 -0.19391 -0.1788 -0.12714 0.69848 0.38525 0.011144 0.33122 0.056181 -0.21912 -0.12606 0.14832 0.17239 -0.1662 -0.35391 0.49977 0.21033 -0.56549 0.1676 -0.073909 -0.1044 0.34015 0.049213 -0.030711 1.0893 0.53733 -0.51043 -0.32115 0.49159 0.5652 -0.057412 -0.2831 -0.26476 0.2575 0.09906 -0.89885 0.0033853 0.41685 0.15009 -0.36227 0.01217 -0.058147 -0.12034 -0.25651 0.76093 0.039011 0.21052 -0.10898 -0.4482 -0.11574 0.57045 0.33673 -0.078791 -0.10251 0.010085 0.38535 0.21491 -0.10602 0.057569 0.2584 -0.78982 0.54671 0.094614 -0.024649 -0.14577 -0.3462 -0.47623 -0.022273 0.25203 -0.14445 -0.072641 -0.038978 -0.094946 0.13382 -0.18533 0.25579 0.050451 -0.059285 0.30217 0.27803 -0.19751 -0.18476 0.22532 -0.73475 0.50415 -0.37238 -0.05422 -0.087724 -0.089379 -0.15505 -0.58715 -0.44097 -0.19142 0.40652 0.23794 0.38063 0.22926 -0.021006 0.0073374 -0.33833 -2.1277 -0.11787 -0.35579 -0.58987 -0.49263 0.60205 -0.14472 0.18789 -0.89529 -0.14094 0.57255 0.66307 -0.41877 -0.23153 0.80064 0.044273 -0.15974 -0.3852 -0.1423 -0.089724 -0.088137 -0.53341 0.0013488 0.20618
chain 0.32797 0.47398 0.1809 -0.2737 0.19301 0.1141 0.69505 0.4564 -0.13607 -1.4798 0.15584 -0.28912 -0.047686 0.54923 -0.063138 -0.11178 -0.070576 0.35757 -0.20485 0.42517 0.04251 0.3157 0.37204 0.10323 0.17368 0.039215 0.027463 -0.13588 0.17475 -0.17901 -0.32211 0.7385 -0.28738 0.23549 -0.1006 0.36527 -0.12202 -0.26073 0.072754 0.25392 -1.1341 -0.42262 -0.081141 0.31542 -0.24674 -0.59473 0.28345 -0.69566 0.14566 0.55061 -0.56248 -0.3888 0.28414 0.0047672 0.15575 0.10078 -0.12697 -0.0036196 -0.77148 -0.090434 0.66264 0.28671 0.24531 -0.3943 0.46982 -0.21726 -0.21916 0.77229 0.087402 0.7881 0.16294 0.18242 0.079407 -0.21663 -0.49171 -0.67743 -0.27645 -0.30591 -0.23141 -0.35201 -0.29101 0.24003 0.090793 -0.11777 -0.1683 -0.24085 -0.0029939 0.3616 -0.38982 -0.058073 -0.072825 0.18539 -0.3437 0.27609 0.3811 -0.065834 0.030056 0.36655 0.20247 -0.81924 0.21733 0.24473 -0.43732 -0.59618 0.0065261 -0.59901 0.46059 0.10244 0.28735 0.20863 -0.13922 -0.57661 0.28424 0.17236 0.68257 -0.08217 -0.29795 -0.22302 -0.18737 0.3001 0.40644 0.31042 1.2002 -0.48162 -0.27463 -0.17243 0.32661 -0.071714 -0.25518 -0.21599 0.55374 0.21273 -0.15567 -0.036553 0.077569 -0.04138 0.23449 0.70692 -0.061809 0.24389 -0.13027 -0.50029 -0.10243 0.041262 -0.078172 0.24857 -0.10879 0.60699 0.22834 -0.20925 0.11151 -0.36092 -0.13957 -0.19418 0.07905 -0.34861 -0.057387 -0.60972 -0.72025 0.11164 1.2535 0.073792 0.30524 0.060829 -0.11762 0.16939 0.20835 -0.1097 0.30083 0.42219 0.24386 0.16265 -0.13192 0.31943 -0.38442 0.1295 -0.37069 0.72635 0.75611 -0.21177 -0.36986 0.04271 -0.017372 0.097293 0.43803 -0.37558 -0.55363 0.47739 -0.16713 -0.16499 -0.25362 0.12152 -0.25448 -0.17668 0.21166 0.065617 -0.30758 -0.78235 -0.19272 0.41647 0.64944 -0.47268 0.42777 0.048913 -0.41776 0.67545 -0.23958 -0.16424 0.60107 0.12482 -0.42959 0.36185 0.54435 -0.23358 -0.044729 0.73126 0.41493 -0.28571 0.23394 -0.043637 0.22556 0.36216 -0.12306 0.15665 -0.056008 0.14996 -0.38592 0.20995 -0.022367 0.038621 1.0665 -0.26189 -0.68607 -0.045104 0.21245 -0.20076 0.99767 -0.34795 -0.19335 0.65557 -0.22884 -0.2755 -0.21081 -0.75191 -0.50539 -0.68853 0.54315 -0.23954 -0.32196 0.024441 0.24827 0.49635 0.32098 -0.26018 0.47785 0.33155 -0.48205 0.56239 0.39851 -0.0019163 0.4437 -0.62168 0.018826 -0.25864 -0.068898 0.05145 0.0067649 0.2131 0.3865 -0.14044 -0.20567 0.021521 -0.21048 7.2272e-05 -0.11701 -0.36831 -1.1557 0.14676 -0.50782 0.2701 0.16177 -0.021411 -0.20447 -0.16794 -0.26333 -0.29581 0.098741 -0.54612 0.086009 -0.12449 0.99354 0.061268 -0.82842 0.060255 -0.60524 0.55452 0.18181 0.017055 0.0060503 -0.91043
shop 0.027142 0.42758 -0.31736 -0.40976 -0.30447 0.35045 0.38316 0.0083649 -0.05649 -0.87254 0.0085287 -0.4198 0.50269 0.31049 0.23312 -0.066865 0.18448 -0.21899 -0.35357 0.45349 0.4331 0.60332 0.17353 0.34372 -0.33161 0.096418 -0.26188 0.039158 -0.016325 -0.45356 0.28514 0.082073 0.10683 0.25106 -0.73201 0.33693 -0.60961 -0.50856 -0.31768 -0.255 -0.27187 -0.057311 -0.12154 0.32972 -0.055571 -0.041771 0.95122 -0.48755 -0.00035934 0.082624 0.095942 -0.41799 0.38046 0.63652 0.17889 0.25129 -0.32339 0.084695 -0.082532 -0.31826 0.47175 -0.33502 -0.067729 -0.17403 0.28252 -0.45913 0.16613 -0.27318 0.1416 -0.33378 -0.28474 -0.2944 0.20379 0.33515 0.049197 -0.178 -0.54319 -0.65946 0.012423 -0.45846 0.11297 0.3294 -0.18892 -0.10904 0.1091 -0.17465 -0.15105 0.21173 -0.20148 0.10565 0.1974 -0.32708 -0.13399 -0.33273 0.50804 0.37843 0.22092 -0.55865 0.1691 -0.67507 0.10956 -0.049834 -0.30621 -0.58191 0.082537 -0.59632 0.6821 -0.10981 0.26931 0.45132 -0.52479 -0.065586 -0.10124 0.44589 0.64346 -0.007817 -0.23041 0.41325 -0.23489 0.18347 0.43424 0.72195 0.6954 -0.35528 -0.10461 0.030404 0.094492 0.13585 0.43137 0.11707 0.17601 0.27851 0.29976 -0.013293 -0.34785 0.13322 0.20321 -0.067745 0.16328 -0.14489 0.14468 -0.2829 0.10654 0.01508 -0.15107 0.24899 -0.31537 0.40861 0.026839 -0.43882 -0.14119 0.28796 0.34828 -0.69319 -0.18908 -0.35525 -0.55898 -0.21105 0.29426 0.033415 1.0278 -0.32513 -0.1052 -0.17047 -0.1561 0.13193 0.78696 -0.2195 0.85062 -0.03402 -0.67859 -0.12542 -0.14485 -0.19857 -0.29059 0.69173 -0.6128 -0.20203 0.32388 -0.11938 -0.026962 0.021941 -0.46361 0.06107 0.67298 -0.10294 0.7079 0.40254 0.67553 0.13657 0.13228 -0.0090175 -0.22019 -0.10265 -0.19394 -0.23754 -0.95763 -0.05125 -0.74183 0.13036 0.68514 -0.055834 0.2543 0.3761 0.031877 -0.21295 -0.10312 -0.32035 0.0058088 -0.20381 -0.11695 -0.038497 0.098348 -0.11502 -0.27896 0.28747 0.30624 0.086581 -0.19821 0.15494 0.19196 -0.26562 -0.69902 -0.18373 0.036172 -0.091489 -0.044748 0.028852 0.40993 0.57101 0.37092 -0.11036 -0.1197 -0.11536 0.91879 0.30783 0.46039 -0.17386 -0.81121 0.12049 -0.069172 -0.26231 -0.37726 -0.023983 -0.26358 -0.25259 0.059246 0.031765 0.088898 0.16753 0.70487 0.21528 -0.061823 0.074902 0.73853 0.22248 -0.52364 0.33758 0.28418 -0.24899 0.01587 -0.22746 -0.19874 -0.11458 -0.085032 -0.47188 -0.25636 0.20692 -0.065381 -0.49796 -0.51255 0.59673 0.62251 -0.436 -0.31769 -0.15434 -1.7612 0.26085 -0.62384 0.34033 -0.17256 0.069336 -0.21046 -0.51879 0.30072 0.65874 0.24182 0.0062086 0.14221 0.31172 -0.17116 -0.49877 -0.60621 0.3086 -0.36129 0.053684 0.16843 0.0052517 -0.17989 0.57408
tower 0.088442 -0.64645 -0.64532 -0.72276 0.18242 0.91594 0.40852 0.30388 -0.51252 -0.85317 0.47369 -0.42558 1.3375 0.0778 0.55248 0.12434 -0.20399 0.00031593 -0.39744 -0.47869 -0.35186 -0.18739 0.20496 0.55716 0.13763 0.091753 -0.40671 0.31192 -0.89232 0.29351 0.86648 0.34202 -0.64238 0.19793 0.097145 0.33047 0.10091 -0.53155 0.55617 0.046817 -0.23946 0.012226 -0.66475 0.85931 -0.11118 0.035802 0.019173 0.08555 -0.082617 -0.38392 -0.34926 0.13855 0.18775 0.027983 -0.030572 0.1108 0.25577 0.56756 0.35098 0.13603 0.15828 -0.034817 0.60208 0.30251 0.37574 0.024205 0.50435 0.47098 0.6664 -0.43877 0.15473 0.10616 -0.2426 -0.095084 -0.28842 0.85368 -0.18583 -0.36978 -0.22112 0.023409 -0.26009 0.4585 -0.33362 0.58886 0.21205 -0.1986 0.38205 0.47001 0.15862 0.060178 0.96311 -0.42081 0.39325 0.75747 -0.39152 -0.26192 -0.39732 0.11316 0.62949 -0.41439 -0.58101 0.31671 0.11706 0.027986 0.18474 -0.46479 0.035703 -0.016738 -0.13674 -0.048697 -0.43118 -0.23632 -0.20963 0.11155 -0.095738 -0.25951 -0.81044 0.36509 -0.43869 -0.10755 0.40539 -0.75403 0.11429 -0.027186 -0.73684 -0.77842 0.21573 -0.024416 -0.43502 -0.45958 -0.10469 0.75337 -0.04753 -0.48686 0.22472 -0.20744 0.24349 -0.38843 -0.56602 -0.36727 -0.43175 0.11121 0.1012 0.7142 -0.29594 -0.31128 0.20078 0.14071 -0.089775 -0.5441 0.17889 0.24203 0.21075 -0.3967 0.4739 0.50517 -0.016521 0.20381 -0.34061 0.66065 0.36369 -0.21709 0.57257 -0.20449 -0.077258 0.55273 0.0099737 -0.40703 0.48443 0.4102 -0.49983 -0.21799 0.15135 -0.27594 0.23569 0.36495 -0.2667 -0.10634 0.026627 -0.9807 -0.21905 0.28003 0.32106 -0.25482 -0.16284 -0.23524 -0.083959 0.22997 -0.13785 0.46736 0.9837 0.20948 -0.095765 -0.023349 -0.015758 -0.42038 -0.69078 -0.44598 0.19721 0.0077658 0.97773 -0.18687 0.0069239 -0.12385 -0.27691 0.1996 -0.03805 -0.35301 0.49483 0.11302 0.70888 0.51654 -0.47441 -0.87368 -0.2741 -0.1008 -0.15237 -0.27868 0.11175 -0.14722 -0.08377 -0.30309 0.59865 0.28822 0.084935 -0.0029442 -0.30101 0.022339 -0.15643 -0.5362 -0.08273 -0.03884 -0.6648 0.29473 0.14342 -0.20991 0.053329 0.25827 0.018969 -0.21689 -0.064097 -0.21354 0.095986 -0.31139 -0.053477 0.4627 0.30533 -0.010877 0.29672 -0.23036 0.32962 -0.081621 -0.34373 0.22464 -0.012393 0.33198 -0.091989 -0.35395 -0.050578 -0.32589 -0.29969 0.45663 0.38626 -0.28201 -0.50089 -0.57775 0.40844 -0.01978 0.32785 -0.34046 0.088463 -0.051216 0.60398 -0.048912 -0.38132 0.15878 -1.5678 -0.081883 -0.35956 -0.18399 -0.1856 -0.31087 0.096815 -1.2334 -0.022698 0.028063 -0.29299 0.52682 -0.34058 -0.096484 0.54529 0.38975 -0.49254 -0.50678 0.66785 -0.013715 0.39221 0.060698 0.5687 0.0097215
bear 0.086177 0.054755 -0.44714 -0.022551 0.31183 0.032818 -0.1387 0.96572 0.4888 -0.75099 -0.093661 -0.1336 -0.26967 0.55778 0.37184 -0.064235 -0.12886 -0.56015 -0.064247 -0.04161 0.25533 -0.21695 0.55944 0.48287 -0.19714 0.071537 0.03649 -0.33761 0.16172 -0.018566 -0.0043925 0.056882 0.0011434 -0.63518 -0.63945 -0.37049 -0.057871 0.29946 -0.21265 -0.14464 -0.62084 -0.59919 0.14505 -0.056854 -0.65216 0.23424 -0.16002 -0.13723 0.42255 0.029473 0.40331 -0.43748 0.015834 -0.20973 0.20679 0.7093 0.19593 0.52424 0.29056 0.0074849 0.10345 -0.16943 0.25786 -0.26626 -0.19976 -0.11185 -0.56724 -0.42329 -0.3765 -0.23901 -0.29483 0.37444 -0.52309 -0.15593 -0.11413 0.019484 0.26711 0.057639 0.31101 -0.37802 0.31136 0.07225 -0.020555 -0.43391 0.75394 0.012868 0.050244 0.24589 -0.15259 0.015661 -0.10038 -0.39596 -0.37438 0.1895 -0.41529 0.3433 0.00052799 -0.32638 -0.36392 0.29913 0.34003 0.39086 -0.043513 0.11121 -0.11696 0.4289 0.1319 -0.016068 0.69789 0.51215 -0.43074 0.43994 -0.40824 0.045821 0.33181 0.15766 -0.24087 0.24838 0.28098 -0.041602 -0.33382 -0.44646 0.22765 0.42093 0.02171 -0.072948 -0.45207 0.14919 -0.049597 -0.80394 -0.10511 0.13964 0.17542 0.40328 -0.18582 0.17392 -0.16662 0.42739 0.18718 -0.34434 0.42817 -0.13119 0.14407 0.33895 0.12115 -0.093308 0.20792 0.31744 0.1549 0.39081 -0.25048 0.93391 -0.18456 -0.60641 0.68932 0.18998 0.3024 -0.42275 -0.56295 0.87063 0.63141 0.35814 0.45692 -0.19333 -0.5555 0.33449 0.70025 0.55328 -0.2277 -0.42977 -0.029074 -0.21067 -0.040413 0.19193 0.13761 -0.48582 0.31657 -0.15511 -0.095555 -0.1836 0.46821 -0.27362 -0.17751 -0.15138 -0.056687 -0.055984 -0.043698 -0.36201 0.18331 0.043327 0.38919 -0.4632 -0.28213 -0.12515 -0.53886 -0.41216 0.45824 -0.091527 0.11683 0.2362 1.3584 -0.4163 0.40883 -0.34517 0.050401 0.25273 -0.41 0.69973 -0.0296 -0.041195 0.11202 -0.49028 0.010992 -0.48199 0.43843 -0.51231 0.39979 0.60083 -0.40575 -0.045183 -0.24098 0.41361 -0.14578 -0.20145 -0.084186 -0.2331 0.30997 0.066423 0.30231 -0.12041 -0.51375 -0.2107 -0.40638 -0.23156 -0.40672 0.4184 -0.32911 -0.83878 0.10276 0.29788 -0.24293 0.61889 0.54026 -0.12752 -1.1992 -0.29751 -0.21392 -0.53084 -0.33414 -0.26834 -0.051812 0.34437 -0.40659 0.04144 0.64159 0.2142 -0.36101 -0.035513 -0.078942 -0.048973 0.010626 0.092643 0.042826 0.036211 -0.4253 0.25897 0.42135 -0.0092855 0.044883 0.33648 -0.46076 0.24866 -0.096073 0.26531 -0.0072007 -0.6796 -1.3896 -0.27316 0.034969 -0.20169 -0.1349 0.24364 -0.080494 -0.24458 -0.59143 0.13549 0.054295 0.058038 0.72197 -0.62493 -0.23878 -0.14983 0.29795 -0.5429 -0.2496 -0.019161 0.229 0.53021 0.35338 -0.074899
orange -0.24776 -0.12359 0.20986 -0.15834 -0.15827 -0.90116 -0.095702 -0.23005 0.27094 -0.18885 -0.6094 -0.29146 -0.14547 -0.17566 0.7757 0.23427 -0.7334 -0.34034 -0.56997 -0.046918 0.024907 -0.18274 0.14792 0.18595 -0.046665 -0.55657 -0.38182 0.21155 -1.1388 0.24632 -0.2749 -0.21952 -0.69771 0.05891 -0.37058 1.0525 -0.19563 -0.17864 -0.24309 0.021318 -0.055165 -0.27761 -0.21785 0.52323 0.16326 -0.54557 0.0014319 -0.087846 0.61443 -0.72582 -0.061206 0.35182 0.55001 -0.67038 -0.060339 -0.0018221 -0.28547 -0.36713 0.66334 -0.83004 -0.26006 -0.39763 -0.38772 0.41361 0.22863 -0.6484 -0.14765 -0.13465 -0.18154 -0.54855 -0.0749 0.21009 0.055898 0.54107 -0.53956 -0.28911 -0.062195 0.033496 -0.27442 -0.24379 0.60123 0.33735 -0.45934 0.22089 0.28856 -0.54551 0.034183 0.48993 0.038962 -0.045273 0.1544 -0.3798 -0.11647 0.061435 -0.43743 0.77289 0.31942 -0.069738 0.023407 0.10732 -0.089489 -0.10486 0.042569 -0.026284 0.33343 0.21235 0.07399 0.18305 -0.50787 0.11003 -0.41798 0.10016 0.51145 0.036357 0.049747 -0.25304 -0.11242 0.84524 -0.098083 -0.44179 0.35958 -0.65623 0.39122 -0.35646 -0.79987 -0.055275 -0.038645 0.43572 0.071285 0.44192 -0.40933 0.026579 -0.55951 0.18181 -0.16561 -0.17277 -0.20476 -0.47509 0.19047 0.025337 0.56109 0.23522 -0.048615 0.020294 0.15802 0.45451 -0.23932 0.068622 0.50821 -0.24706 0.80493 0.054989 0.46609 -0.18083 0.73783 -0.27206 0.26418 -0.49461 -0.024973 0.19331 -0.37615 0.33468 -0.24353 0.18171 0.041497 -0.063388 0.036015 0.28952 -0.52935 -0.063903 0.69211 0.1215 -0.62731 0.26627 0.36438 -0.77108 0.40561 -0.3078 0.55919 -0.32124 -0.14276 0.070346 0.19114 -0.3929 0.004516 -0.73871 0.8074 0.1354 -0.12414 -0.79568 0.058827 0.48552 -0.2902 -0.11301 0.018115 -0.16892 -0.42663 -0.2062 -0.21115 0.42126 0.91802 0.07018 -0.010133 -0.16455 0.21174 0.14027 0.52289 0.75919 0.050752 0.75467 -0.007933 0.23611 -0.68522 -0.42567 0.34091 0.020985 1.0518 -0.031345 -0.086061 -0.57768 1.3026 -0.37067 -0.35319 0.052281 -0.16382 -0.46568 -0.10996 -0.42071 -0.50616 -0.50337 -0.31583 0.47216 -0.053558 0.15372 0.31001 -0.10349 0.17909 -0.32471 -0.16194 -0.53479 -0.13764 -0.71118 0.18695 0.16932 -0.73799 0.037364 1.0209 -0.42802 0.13443 -0.35761 0.39819 0.43802 -0.16397 -0.15303 0.27137 -0.5281 0.31447 -0.11779 0.2753 -0.20477 0.19547 0.14832 0.7838 -0.34746 -0.5382 -0.74684 -0.30637 -0.23923 -0.1677 0.30751 -0.11028 -0.0076799 -0.21395 -0.055122 -0.44104 0.13752 -1.3948 -0.11891 -0.36035 0.051432 0.0089858 -0.029622 -0.20384 -0.235 -0.065453 0.54828 -0.33196 -0.11157 -0.0050479 0.13196 0.33844 -0.15593 -0.10277 -0.082953 0.43793 -0.22457 0.31513 0.079717 0.23865 -0.014213
barrel -0.74256 0.11215 -0.12948 0.12731 0.33299 0.76286 0.30968 -0.24702 0.2765 -0.67911 -0.23526 -0.24768 0.18443 0.22976 0.11206 0.36834 -0.27301 0.58928 -0.5235 -0.5441 0.2819 0.76247 0.37554 -0.59172 0.06937 0.30973 0.59914 0.34843 0.5196 -0.21434 0.43627 0.76733 0.0094523 0.32371 -0.52046 -0.083713 -0.23851 -0.046607 0.5411 1.3183 -0.57413 0.39776 -0.43798 0.014358 -0.56583 0.69732 0.074905 -0.059703 0.13876 0.20361 -0.21676 0.22815 -0.81436 -0.60467 0.33573 -0.65503 -0.17321 0.223 0.42765 -0.46978 0.16824 -0.002627 0.91626 -0.7827 -0.31644 -0.92453 -0.21623 0.13047 0.55111 0.092253 -0.37533 -0.15397 -0.37823 -0.36984 0.44783 -0.42602 0.32777 0.091024 0.15114 0.25663 -0.043346 -0.10208 -0.39478 0.2338 0.38634 0.21012 0.035768 -0.18308 -0.19824 -0.23903 1.594 -0.014793 -0.38487 -0.19281 0.16844 0.5432 -0.038726 0.5247 0.64529 -0.059784 -0.48895 0.56642 -0.038571 -0.35823 -0.014835 -0.24544 0.10947 0.20229 -0.3304 0.87587 -0.1127 0.1886 -0.22579 -0.15814 0.36156 0.076037 0.17114 0.24813 0.20963 -0.028558 -0.42363 -0.58076 0.10813 0.68074 0.41708 0.38731 0.11844 -0.019906 0.47621 0.4186 -0.34714 -0.15578 -0.50306 -0.25916 -0.14286 0.091222 -0.48267 0.50229 0.14543 -0.15608 0.15555 -0.23898 -0.42064 -0.35673 -0.62035 0.25419 -0.4324 -0.37174 -0.10465 0.40805 -0.30676 1.1622 -0.37147 -0.74363 -0.61114 0.048142 -0.45313 -0.70752 -0.30507 0.18238 0.32351 -0.25799 -1.1368 -0.32577 0.62598 0.22305 0.62556 0.34896 0.27392 0.14127 -0.22272 0.18198 0.53957 -0.03761 0.76845 -0.20554 0.44816 -0.013086 0.29695 0.68328 -0.21475 0.52842 0.27162 0.22207 0.22353 -0.271 1.5737 0.55091 -0.084751 -0.21029 -0.17659 0.31403 0.43039 -0.0045538 -1.4558 -0.29751 0.04764 -0.71554 0.39146 -0.30652 0.60751 0.18032 0.84415 -0.27676 -0.29175 0.42193 -0.6456 -0.5979 -0.02303 0.044714 0.17832 -0.1956 0.40804 0.11632 -0.19881 -0.22419 0.37455 0.25231 -0.24982 0.49033 0.19458 -0.097892 -0.15486 0.39373 -1.0832 -0.40848 -0.61195 0.11491 0.21736 -0.582 0.46049 0.16045 -0.06014 -0.25761 0.38659 0.1572 0.02185 -0.73487 -0.054879 0.43492 -0.16998 -0.52527 -0.38033 0.39232 -0.42898 -0.59446 0.076022 0.044674 -0.43194 -0.56033 -0.32292 -0.18568 -0.061741 -0.47416 -0.53582 -0.086498 -0.91393 0.15965 0.07536 1.0251 -0.38021 1.3236 -0.12698 -0.050894 0.26131 0.0017133 -0.11532 -0.14045 0.044279 -0.57921 0.46141 0.20481 0.79295 0.050208 -0.59947 -0.25959 -0.69279 -0.36662 -0.6273 -0.37372 -0.1064 -0.82904 -0.073871 -0.26849 0.18746 -0.43422 0.12798 -0.66495 -0.40345 -0.21956 -0.37517 -0.60661 0.085761 0.23792 0.79164 1.1751 -0.84646 -0.13188 -0.35313 0.24523
pan 0.91643 0.095422 0.36995 -0.93059 -0.033587 -0.17703 -0.43537 0.75044 -0.19396 -1.1381 0.20302 0.51764 -0.25437 -0.044942 -0.70092 -0.047713 0.22722 0.78965 0.33588 -0.10106 0.080951 -0.36997 -0.12831 0.040015 0.46547 -0.59702 0.44449 0.37727 0.074013 -1.0752 0.36855 0.24863 0.24619 -0.64929 -0.86667 0.67244 0.2591 0.46948 -0.19987 0.96831 0.0072004 -0.32742 0.67779 0.53458 0.63786 0.25154 0.4968 0.473 0.27921 -0.15439 0.052756 0.28968 -0.13592 -0.57617 -0.28963 0.78846 -0.05296 -0.014583 1.0167 -0.25429 0.17183 0.33065 0.21454 -0.059208 0.29695 0.037905 0.25721 0.7907 0.36109 0.30746 0.72075 -0.24592 0.70514 -0.27166 -0.96188 0.29665 0.08687 -0.23896 -0.34546 -0.13963 -0.062744 -0.1584 -0.14288 -0.036814 0.15043 -0.27889 -0.012412 0.56356 -0.51106 -0.39345 -0.66245 0.14637 0.020623 0.14121 -0.37034 -0.13019 0.012132 1.0251 -0.48796 0.38288 -0.42652 -0.39971 0.29548 -0.66682 0.47677 0.68406 0.095904 -0.39718 -0.15387 0.28865 -0.067299 -0.071919 0.0047819 -0.018146 -0.42336 -0.24228 -1.0961 0.57311 0.01761 -0.62731 -0.0045839 0.024428 0.41421 -0.2378 -0.23946 0.17351 -0.19605 1.192 -1.0943 0.097509 -1.1333 0.30985 0.28969 1.0358 -0.093104 -0.36943 -0.27422 0.84259 -0.7596 -0.00076538 0.52173 -0.046485 -0.90764 -0.042699 -0.68747 0.41714 0.37781 1.1384 -0.30156 0.044962 0.49463 0.27009 0.29226 -0.026646 -0.1353 -0.0602 -0.18918 0.28809 -0.36411 0.34728 -0.19562 0.88315 -0.31268 -0.53597 -0.29986 -0.70061 0.04325 -0.17925 -0.17634 -0.16913 -0.28175 -0.44642 -0.19294 -0.47464 0.28083 -0.091702 0.40305 -0.39051 0.18442 -0.28342 0.044137 0.40673 0.76059 0.43734 -0.15779 0.23202 -0.076813 0.21206 -0.13069 0.17218 0.18262 0.68817 -0.42839 0.12947 -0.46457 -0.10061 0.3028 0.41367 -0.83949 0.22167 0.59236 0.3071 0.25813 0.20377 -0.26342 0.59718 0.097041 -0.60251 0.37413 0.12212 0.33352 -0.65862 -0.40941 0.65029 -0.10703 -0.12454 0.21669 -1.031 -0.34447 0.21674 0.052457 0.093191 -0.01164 -0.14938 -0.23307 -0.27682 -0.065265 0.06475 0.18665 -0.29759 0.76091 0.081813 -0.21932 0.51679 0.45037 -0.030904 0.030701 0.48312 -0.52401 -0.63047 -0.12294 0.063861 -0.42924 0.32131 -0.025808 -0.22239 0.72292 -0.42231 0.14155 -0.57274 0.11264 -0.58278 0.46906 0.74884 -0.16649 -0.11878 0.37677 0.10604 -0.18957 0.27552 -0.31111 -0.4562 -0.30585 0.76325 0.86716 0.30044 -0.71232 0.47202 -0.23947 0.031935 -0.20561 -0.1628 0.572 0.96138 0.4456 -0.77989 -1.0996 -0.0044853 -0.92408 0.24358 0.37718 -0.29253 -0.98796 -0.42553 -0.33284 0.66343 0.2324 0.40185 -0.67594 0.58997 0.2114 0.21054 -0.10855 -0.069399 0.042381 0.04506 -0.17009 -0.35759 -0.56068 0.15686
chair 0.26288 -0.34735 -0.066811 -0.54137 -0.16543 -0.4113 -0.15191 -0.72511 -0.091526 -1.0731 -0.21672 0.18074 0.007132 -0.37416 0.43462 0.40037 0.22786 0.65643 -0.021995 -0.23408 0.01183 0.50484 -0.35343 -0.048301 -0.16914 0.10821 0.26714 -0.19253 0.14933 -0.36426 0.22751 -0.3485 0.41123 0.44848 -1.0098 0.56136 0.28445 -0.46063 -0.21184 0.26158 0.05406 -0.39451 -0.72516 -0.24419 0.22813 -0.040664 -0.17153 -0.34963 0.2377 0.23925 -0.35809 0.22285 0.045329 -0.16477 -0.16048 0.16004 -0.1487 -0.28536 0.067689 0.16285 0.16503 0.41007 0.19622 0.43399 -0.17326 -0.84547 -0.48517 0.18441 -0.48347 -0.16789 -0.39367 0.22717 -0.012973 0.0057874 -0.11799 -0.071603 -0.027664 0.62465 0.11688 -0.85215 -0.16934 -0.061497 -0.23912 0.16618 0.24263 -0.40026 0.10968 0.9017 -0.53714 -0.061908 0.27383 0.021373 -0.089779 -0.18124 0.015042 -0.43666 -0.049903 0.034739 0.10566 -0.066265 0.26143 0.30489 0.093483 -0.075748 0.32563 -0.055995 0.084774 0.027318 -0.26122 -0.56515 -0.14591 0.032099 -0.63133 0.025946 -0.24346 0.18219 -0.12268 -0.16399 0.090297 0.38321 -0.59827 0.25702 -0.41777 -0.32479 0.073994 -0.29516 -0.13135 -0.39541 0.11669 0.14214 0.23187 -0.29866 0.087262 -0.38218 -0.49865 -0.25824 -0.064516 0.58431 -0.5667 0.082143 0.2922 0.4655 0.22288 0.016992 0.21744 0.35655 0.067358 -0.019023 -0.35232 -0.12151 0.62931 0.36017 0.50084 -0.26696 -0.6836 0.25891 0.08095 -0.43374 0.052471 0.39305 0.16622 0.71774 0.11808 -0.32932 0.40801 0.0064573 -0.043032 0.29342 0.25567 0.42705 -0.53552 0.67649 -0.10678 -0.3978 -0.12916 -0.30146 -0.14089 0.99601 -0.1305 -0.55658 0.1782 -0.13925 0.057779 0.43664 0.35001 -0.22999 -0.62618 0.40345 -0.032496 -0.022293 0.58286 -0.15579 0.11272 -0.26909 -0.43672 0.459 -0.081416 0.6542 -0.24707 0.1447 0.80749 0.13562 0.1922 0.031007 -0.071341 -0.40361 0.41713 -0.10426 -0.19787 -0.022537 0.42874 -0.11561 0.12082 -0.13225 0.095848 0.32152 -0.597 -0.75548 -0.25992 -0.63549 -0.31303 0.047325 -0.19442 0.11598 -0.14563 0.26155 -0.18572 0.23458 -0.44775 -0.03043 0.40137 -0.11638 -0.15205 0.06029 0.21925 -0.067026 -0.35741 0.17171 -0.33893 -0.30232 0.13413 0.090298 -0.38746 0.10396 -0.21244 0.60908 -0.095747 -0.26722 -0.58356 -0.1392 -0.2757 -0.37958 0.50873 -0.53531 0.26426 0.24384 -0.58849 -0.2261 0.1312 -0.065072 -0.53058 -0.41471 0.37223 0.59929 -0.16639 -0.80862 0.43086 0.54674 0.00027524 0.71967 -0.63574 -0.22461 -0.1246 -0.35363 -0.12981 -0.34682 -1.0077 0.49169 0.16506 0.28804 -0.66238 -0.42212 -0.26845 -0.51605 0.031118 0.49397 -0.039259 0.43592 -0.0017542 -0.32901 0.40113 0.05714 -0.22851 -0.014979 -0.50594 0.62951 0.10739 0.10382 -0.21384 0.83684
plate 0.22997 0.46397 0.048731 -0.28001 0.090956 -0.32237 -0.61962 -0.32692 0.41255 -0.87821 -0.27475 0.41284 -0.7196 -0.0079272 -0.53302 -0.34466 -0.41633 0.052733 0.071435 -0.3672 0.079626 0.012903 -0.36539 -0.3747 -0.022508 -0.58609 -0.00031448 0.48105 0.17981 -0.64419 0.31234 0.72605 -0.073823 -0.1527 -0.82164 0.15289 0.00058361 0.44252 -0.50828 0.64808 -0.21102 0.18112 -0.040863 -0.3355 0.46386 0.33656 0.13621 -0.11591 -0.01392 0.29609 0.16875 0.056214 0.17653 0.41155 -0.28563 0.12939 -0.051915 -0.32178 -0.028023 0.057496 0.48103 -0.12077 0.49298 -0.085026 0.27883 0.18639 -0.098911 0.077006 -0.061287 0.0386 -0.045587 0.28821 0.37289 0.16695 -0.68861 -0.17277 0.24244 -0.23023 -0.36513 -0.46014 0.038254 -0.10387 -0.51339 -0.32178 -0.39847 -0.28411 -0.23088 -0.19566 -0.29511 -0.021197 1.012 0.044523 -0.75928 0.086611 -0.25576 0.36781 -0.40962 -0.1605 0.062988 -0.033929 -0.064609 0.092116 0.21505 -0.20807 0.57281 0.17003 0.45187 0.44852 -0.13166 0.2415 0.087319 -0.022525 -0.18495 -0.84638 -0.72624 -0.35989 -0.84891 -0.33699 0.10026 -0.24689 -0.27239 0.056656 -0.069942 0.025676 -0.029692 -0.42114 0.37659 -0.56535 -0.028137 0.54611 -0.010934 0.71239 0.46711 1.0959 0.10729 0.32058 0.20039 0.27145 -0.29615 -0.10917 -0.21634 0.16756 0.071338 -0.29645 -0.039113 0.059111 -0.39599 -0.086879 -0.11809 -0.81771 0.36617 0.17304 0.22167 -0.29114 0.15687 -0.90151 -0.24005 -0.61351 -0.067046 -0.48236 0.028432 -0.030921 -0.39267 -0.071352 0.68065 -0.30892 -0.29826 0.17325 0.26412 -0.34806 -0.088903 -0.073838 0.65218 -0.92082 0.29567 -0.45535 -0.2922 0.18973 -0.081416 -0.8208 0.65504 -0.21311 0.41262 0.20167 -0.2824 -0.36209 0.32188 0.32839 0.052682 -0.028543 -0.19399 1.1924 0.33848 0.73353 0.63872 0.41667 0.31305 -0.18717 -0.62444 -0.066303 1.256 -0.2356 0.18027 -0.016352 1.0326 0.24041 0.78789 -0.30902 0.022861 0.23324 -0.072053 -0.52097 0.22488 0.12038 -0.11823 -0.16132 -0.48341 -0.7554 0.19969 0.54433 -0.14589 0.28234 0.44602 -0.40382 -0.19175 -0.064387 0.17408 0.11694 0.36138 -0.3463 -0.71741 -0.019415 -0.50914 -0.0052568 0.27004 -0.42195 -0.14306 0.39179 0.12326 0.10919 -0.29351 0.23645 -0.098965 0.26444 -0.8996 -0.23208 -0.45673 -0.14708 0.16579 -0.06165 0.284 -0.35461 0.46997 -0.046677 0.082848 0.029383 0.017598 -0.19599 -0.66789 0.010619 -0.41851 -0.40766 0.49008 0.84298 0.041319 0.31796 -0.24973 0.50129 0.51201 0.15558 -0.09778 -0.53863 -0.14619 0.37212 0.24121 0.098192 -1.1331 0.27338 -0.69457 0.43903 -0.25577 0.10986 0.081829 -0.129 -0.72403 0.14067 0.38095 -0.49518 0.40763 -0.061023 0.0069292 0.089426 -0.16361 0.11082 -0.05338 0.13341 0.68035 -0.50788 0.58447 -0.10629
stick -0.081123 0.1525 -0.049709 -0.37484 0.34564 -0.23426 -0.37833 -0.12892 -0.41389 -1.3204 0.096554 -0.19136 0.010883 -0.6006 0.085938 0.58339 -0.01828 0.21597 0.21184 0.16108 0.16185 -0.085201 0.66595 0.37229 -0.21495 0.25075 -0.27024 -0.8426 0.05987 0.20392 0.50666 0.28078 0.42506 0.14174 -0.87972 0.61018 0.11408 0.29901 -0.18815 0.13584 0.15521 0.053234 0.15671 -0.46647 -0.015808 0.30982 0.13761 -0.47328 -0.010504 0.50911 0.18508 0.3997 -0.23827 -0.18837 -0.2271 0.4664 -0.34594 0.073037 0.80479 0.23187 0.54333 0.38874 -0.14386 0.22343 0.035635 -0.61554 -0.13424 0.22925 -0.013225 0.17751 -0.042883 0.14381 -0.208 0.71979 0.47442 0.20176 0.21823 -0.12633 0.088382 -0.45647 -0.47012 -0.061522 0.16073 -0.46061 -0.030092 -0.20796 -0.54786 -0.10652 -0.78623 -0.19165 0.19273 0.36147 -0.26426 -0.41682 0.80655 -0.65007 -0.16076 -0.24684 -0.064659 -0.2126 0.1874 0.30714 -0.41055 -0.21328 -0.05998 0.25141 0.20378 -0.61385 -0.35375 -0.026206 0.14832 -0.30073 -0.31215 0.4592 -0.1226 -0.13275 -0.59082 0.23411 -0.01978 -0.30275 -0.19271 -0.44908 0.51717 0.020792 -0.49427 0.30742 0.16907 0.13033 0.051083 0.075363 0.10536 0.16686 -0.14567 0.25498 0.20262 0.01595 0.45768 -0.090328 0.077123 -0.047572 0.18353 0.23289 -0.63898 -0.27403 0.20988 0.52616 -0.5112 -0.12388 0.13374 -0.215 -0.43457 0.72706 0.41732 0.099283 -0.15266 -0.18525 -0.083061 -0.024715 0.0052088 0.19723 0.50575 -0.17327 -0.3393 -0.34176 0.32628 0.52186 0.088393 0.54173 -0.36912 -0.80205 -0.0023705 -0.24173 -0.27044 0.22696 -0.013209 -0.3231 0.24884 0.23438 -0.097052 -0.37921 -0.26282 -0.28304 0.62144 0.19373 0.077568 -0.30069 0.74382 0.15166 0.4343 -0.074928 0.17214 0.065494 0.46736 0.16181 0.17178 -0.29248 -0.149 0.12195 0.78347 0.023812 1.0789 0.47038 0.49522 0.60678 0.031154 0.18971 0.61454 -0.073313 -0.28513 0.39353 -0.00064138 -0.17987 0.16366 0.24355 -0.42125 0.15795 0.26551 0.17747 -0.39558 -0.67147 0.0492 0.39267 0.059303 0.15119 -0.14027 -0.062649 -0.14357 0.29516 0.36715 -0.27965 -0.007028 -0.050648 0.22281 -0.14154 -0.1751 0.16236 -0.83427 0.27992 0.030121 -0.43197 0.37016 -0.36707 -0.13508 -0.24954 -0.34057 -0.21825 0.20386 0.30472 -0.42392 -0.54927 0.59776 -0.27337 0.1079 -0.1276 0.14074 0.34345 -0.21893 0.094037 -0.32775 -0.18697 -0.32803 0.0070124 0.071956 0.080289 -0.15753 -0.23433 -0.3074 -0.048833 -0.56652 0.43636 -0.17206 0.069454 0.21272 0.78252 -0.18217 -0.032598 -1.498 -0.14892 -0.30418 -0.62797 0.59741 0.2633 -0.42584 0.0070555 0.30044 0.14206 0.26543 -0.42987 -0.20232 0.010364 0.10021 0.14249 0.16563 -0.018942 0.23813 0.3748 0.060734 0.15627 0.054674 0.088794
dam -0.17076 -0.19439 -0.55217 -0.51937 0.098697 0.5076 0.97471 0.023636 -0.63548 -0.51548 -0.23073 0.044444 0.56707 0.31934 0.35146 0.22492 0.17666 0.075774 0.21749 0.61032 -0.17265 -0.041359 0.29588 0.14747 -0.4546 0.39658 0.085506 -0.21873 -0.12412 0.1829 0.20422 0.34334 0.0062264 0.14717 1.0737 0.18471 -0.53879 -0.17468 0.54491 0.37386 -0.1543 0.27499 0.14355 0.73094 -0.4718 -0.10728 0.5363 0.027185 0.9443 0.49707 0.10416 0.34092 -0.45921 -0.21439 0.67478 1.4813 0.24219 0.53169 -0.37491 1.1133 -0.50328 -0.15158 -0.093884 -0.90379 -0.50867 -0.1766 -0.19398 0.50208 0.061479 -0.16154 0.60984 -0.19863 -0.071298 0.59871 -0.26161 -0.12074 -0.0275 -0.14387 -0.2648 -0.19741 0.63666 -0.33702 0.30499 -0.7031 0.54664 0.54217 -0.27137 0.46002 0.73682 -0.27066 0.0080976 0.052911 0.77836 0.10725 0.071628 0.2809 0.27196 -0.77913 0.29973 0.013692 0.51769 -0.63778 -0.19528 -0.61204 0.44077 0.60924 -0.41562 0.49832 0.10918 -0.38454 -0.39622 -0.91035 -0.58911 -0.23271 -0.36792 0.070437 0.4492 0.12216 -0.2221 0.014915 -0.056632 0.36044 -0.091521 0.18293 0.33027 -0.42305 0.20548 -0.11228 -0.14467 -0.1481 0.30384 1.0775 0.67646 0.21256 0.085955 -0.5 0.4195 -0.27277 -0.28245 -0.55299 0.016924 -0.19255 0.1656 -0.70753 -0.010659 -0.43743 1.1747 0.16734 -0.079 0.040033 1.047 0.63321 -0.77257 -0.27453 0.68638 0.055653 0.58537 -0.1768 -0.84418 0.5364 -0.012872 -0.57228 0.26734 0.1641 -0.22586 -0.23425 -0.38806 -0.063778 -0.22429 -0.137 0.44277 0.41821 0.10926 -1.1368 -0.0023216 0.32751 -0.63557 -0.034939 0.03083 -0.14867 -0.44262 0.6469 0.14063 -0.20344 -0.43992 -0.32247 0.18519 -0.11637 0.8588 0.24956 0.19351 0.5812 -0.38766 0.58071 -0.12115 0.080434 0.32403 -1.022 0.52589 0.050395 1.0966 0.21299 -0.4655 -0.39655 -0.098172 0.29895 -0.53923 -0.10238 0.12343 0.51936 0.18 -0.10481 0.19262 -0.58527 0.24839 0.61 -1.1949 -0.10083 0.31344 -0.23449 0.63104 -0.50782 0.35118 -0.18124 0.57606 0.077422 -0.089772 0.63529 0.21898 -0.4258 -0.10758 -0.36382 -0.67314 0.11974 0.40682 -0.051594 -0.6664 -0.019777 0.67323 0.054417 0.27223 0.32552 -0.15349 -0.26729 -0.85181 0.33536 0.5571 -0.027079 0.051161 -0.3532 -0.46689 -0.070666 -0.38992 -0.6017 -0.12083 -0.12214 0.084693 0.21079 -0.21749 -0.0067053 -0.037111 0.23251 -0.10617 -0.73717 -0.054974 0.16205 0.43693 -0.1735 -0.085464 0.030716 -0.19055 -0.38575 0.45423 0.12433 -0.512 0.57991 -0.6911 -0.25259 0.21281 0.42377 -0.2462 0.58152 0.5907 -0.48691 -0.31002 -0.20627 0.21494 -0.10872 0.035464 0.25326 -0.32089 0.0089197 0.15344 0.017009 0.29203 0.26417 0.10738 -0.35468 0.18903 0.45667
bag -0.087167 0.23817 0.1477 0.11442 0.31066 -0.24725 -0.16221 0.18462 -0.068427 -1.048 -0.23832 -0.17433 -0.1502 0.041428 -0.20486 0.12536 -0.46615 0.33844 -0.19524 0.0013127 0.36929 -0.63668 -0.49941 0.023309 -0.58039 -0.086316 -0.42041 0.14441 0.72673 -0.34767 -0.055667 -0.11566 0.050934 0.13927 -0.67478 0.71605 -0.50479 0.41031 -0.9804 0.71022 -0.58329 -0.60172 0.25114 0.18577 0.080545 0.14683 0.64657 -0.51276 -0.1757 0.47405 0.32912 -0.34448 0.07519 -0.073344 -0.049369 -0.045919 -0.14913 -0.5057 0.30735 -0.24232 -0.0074066 0.10638 0.06893 0.47667 -0.11929 -0.37295 -0.54608 -0.46485 -0.34325 -0.10604 -0.074453 -0.41857 0.021897 0.071248 -0.18841 -0.036258 0.083648 -0.53704 0.28698 -0.19628 -0.021577 0.30862 0.35096 0.21743 -0.25861 -0.32333 -0.32377 -0.051723 -0.8106 -0.44959 0.27534 -0.19636 0.036794 -0.14299 0.24473 -0.0097748 -0.4097 0.42981 0.1067 -0.66172 -0.18403 0.57346 -0.29616 -0.84139 -0.33983 -0.83538 0.44457 0.28584 -0.45882 -0.20305 -0.29717 0.42332 -0.061232 0.016469 0.034832 0.38043 0.17538 0.14917 0.21717 -0.98132 0.080728 -0.1207 0.67886 0.21742 -0.079411 0.20531 0.19669 -0.12681 0.26542 0.40689 0.24016 0.017693 0.090591 0.28353 -0.019994 -0.24986 0.099543 -0.031665 -0.39682 0.30546 0.050731 0.26762 0.042585 -0.59308 -0.38078 -0.04971 0.086126 0.164 -0.079296 -0.0059037 -0.31682 0.65398 0.052255 -0.44544 0.18627 -0.077004 -0.15702 -0.25422 -0.026992 0.47692 0.4824 -0.53336 -0.076978 0.41504 0.55361 -0.3507 0.024066 0.752 0.1634 -0.2598 0.159 -0.079672 0.095038 -0.047044 -0.037625 -0.55361 -0.02846 0.26768 0.03285 -0.75517 0.74226 0.16412 0.1196 -0.010566 -0.16921 0.17623 0.84869 0.34773 0.21756 -0.60021 0.43147 0.49159 -0.1075 -0.2008 -0.80069 0.20163 -0.34593 0.38318 -0.12851 0.38837 0.40354 0.094573 0.888 0.047391 0.042887 -0.61893 0.11916 0.20922 -0.62785 -0.22108 -0.27163 -0.078794 -0.0066592 0.68371 0.08685 -0.94722 0.099736 -0.37245 -0.44365 0.25768 0.27601 0.48745 0.16116 0.26417 0.39504 0.33554 -0.38993 -0.21519 0.58444 -0.36399 0.082276 -0.11985 -0.29837 0.25864 0.59802 0.47588 -0.091404 0.22592 -0.53319 0.19722 0.1206 -0.0091282 -0.22209 0.09918 -0.40208 -0.4056 0.37567 -0.55753 -0.2055 -0.21993 -0.17928 0.16726 0.3593 -0.51497 0.46273 0.41899 0.16882 -0.22336 0.0033178 -0.25876 0.22727 -0.34178 0.018632 0.3862 -0.023223 0.15013 0.065243 0.15685 -0.40526 0.34639 0.046407 0.23672 0.048853 0.47095 -0.47889 -0.55064 -1.3133 0.25153 -0.63816 0.27686 -0.40941 0.21585 0.34266 -0.32461 -0.48904 0.32415 0.44784 -0.43599 -0.54295 -0.097701 0.087269 -0.044279 -0.13235 0.11473 0.029608 -0.36812 0.33768 -0.15555 -0.12961 0.068955
wheel 0.27593 -0.14595 0.25877 -0.79508 0.071518 0.2348 0.33423 0.1064 -0.065661 -0.78783 -0.054035 0.026963 0.13972 -0.11312 0.36157 -0.011107 0.18998 -0.080001 0.12563 -0.36039 -0.075675 0.78279 0.31668 0.17715 0.18328 0.2376 0.4563 0.23859 0.2563 -0.086737 -0.041756 0.28689 -0.06047 0.27833 -0.49231 0.84661 -0.16445 -0.52356 -0.45631 0.73941 -0.55221 0.066952 -0.5767 -0.36294 0.281 0.36336 0.67043 -0.015852 -0.15605 0.094137 0.14017 0.19996 0.55877 -0.35799 0.38941 0.45291 0.24153 -0.44203 -0.042189 0.090179 0.2556 0.26523 0.46816 -0.1603 -0.048839 0.68068 -0.55979 -0.27032 -0.11563 0.53572 0.24857 0.10945 0.58568 0.33013 0.22071 0.3361 -0.054347 -0.546 -0.093934 -0.25492 0.1248 0.74107 -0.079187 0.062235 -0.87147 -0.0046629 0.39488 0.52662 -0.74464 0.15633 0.89987 0.21006 0.014229 -0.24354 0.38366 -0.39764 -0.33976 0.27472 0.13135 -0.44115 -0.29712 0.89334 -0.14778 0.037888 0.077017 -0.11896 -0.059026 0.46338 -0.35986 -0.5819 -0.20447 0.15033 0.0081116 -0.3311 -0.19596 0.25387 -0.48444 0.23115 -0.30768 0.24945 -0.013065 -0.68601 0.50381 -0.67214 -0.46096 -0.29407 0.0021952 0.26413 0.18121 -0.042559 0.38085 0.62028 0.36226 0.30372 -0.57583 0.63165 -0.18357 -0.69385 -0.262 0.3291 -0.060458 0.93769 -0.05741 -0.22476 -0.0040067 0.16066 -0.25969 -0.65283 0.41545 0.81286 0.30712 0.36406 -0.58251 -0.25152 0.72836 -0.38744 0.70484 -0.10768 -0.073336 0.33422 0.54353 -0.74449 -0.87008 0.030142 0.62446 0.40912 -0.32728 0.74029 0.64138 0.082832 -1.0265 0.27025 0.49144 0.52707 0.26333 -0.29973 0.22414 0.28585 -0.13546 -0.1427 0.049479 0.69608 0.25814 0.14758 0.64778 -0.85752 0.40059 -0.31794 0.88762 -0.19544 0.11873 -0.29994 -0.1295 0.49226 0.46033 0.30702 -0.17814 -0.17113 0.17808 0.23437 0.88309 0.081239 0.62719 0.12169 0.31099 -0.0077379 0.21317 -0.67594 -0.27799 0.16721 0.46714 -0.4346 0.40757 -0.11012 0.59605 -0.48612 -0.18809 0.5129 -0.31234 0.0033285 -0.078451 0.23858 0.051426 -0.064327 0.3215 0.34096 0.16947 0.30466 -0.071606 0.044305 -0.048658 -0.66672 0.15484 -0.33641 0.40326 0.10267 -0.015454 0.55094 -0.28596 -0.45188 0.060941 0.031785 -0.19762 -0.13431 -0.8467 -0.28531 -0.28048 0.17961 0.53727 0.54159 -0.52668 -0.66897 0.016853 -0.40757 0.23092 0.27103 -0.54417 -0.3943 -0.35565 -0.60226 -0.27898 -0.85608 0.40619 0.69597 -0.20844 -0.69218 0.4492 -0.037205 0.18351 -0.017262 -0.58136 -0.081358 0.076835 0.093442 0.31943 -0.19716 -1.1952 0.10334 -0.25127 0.25612 0.14352 -0.27369 -0.024879 -0.19754 0.1662 0.17331 -0.54707 -0.95009 -0.17965 -0.10146 0.26046 -0.014191 0.089442 -0.1013 0.24714 0.13654 -0.34529 0.31267 0.30975 0.050259
pole 0.16027 0.021381 -0.087318 -0.6449 -0.62049 -0.1199 -0.49659 -0.49007 0.1183 0.11351 -0.027273 0.10031 0.42979 0.29116 -0.64103 0.36547 -0.29672 0.26531 -0.68399 -0.22382 0.22104 -0.18633 0.40278 -0.19799 0.54391 -0.24377 0.32669 0.53687 -0.047602 -0.30686 -0.19533 -0.28518 -0.43595 -0.38942 -1.0922 0.16219 -0.37147 -0.1944 0.16676 1.1277 -0.27071 0.53189 -0.26446 -0.38425 -0.82514 0.42799 -0.004034 -0.039989 0.29727 0.30256 0.20285 0.20533 0.69175 0.44966 -0.17133 0.53104 0.66182 -0.75538 0.10237 0.77478 -0.0071 0.42306 0.86997 0.066632 -0.27708 -0.48797 -0.60328 0.44187 0.14752 0.1208 -0.3669 0.011752 -0.87242 -0.13434 -0.97022 -0.33641 -0.032416 -0.89936 0.4203 -0.31554 0.36212 0.23125 -0.089473 0.28189 -0.49235 -0.3457 0.10165 -0.092527 0.82165 0.2333 0.96478 0.032883 0.51123 -0.85383 0.14184 -0.50872 -0.37177 -0.17983 -0.9838 -0.77142 0.023582 0.54371 -0.052566 0.45212 0.047766 0.015094 -0.59648 0.2642 -0.35297 -0.022218 -0.31861 -0.22952 0.11325 -0.49592 -0.32379 -0.066036 -0.17575 0.21099 0.016353 0.18639 0.30093 0.26436 0.59939 -0.63104 0.64496 0.23867 -0.35212 0.005674 0.29302 -0.18638 -0.34581 0.30758 0.36355 0.27497 0.059428 0.21619 -0.0059109 -0.51108 -0.35609 -0.11874 -0.35862 0.035957 0.38052 -0.55204 -0.086006 0.23475 -0.40262 -0.22485 -0.20207 -0.60656 0.40966 0.78134 0.36001 -0.45323 -0.17965 0.11403 -0.064524 -0.57042 -0.11609 0.17813 -0.18373 -0.9058 0.53837 -0.37429 -0.055291 0.090529 -0.11317 0.047362 0.4386 -0.28671 -0.1587 0.32203 0.24529 -0.35672 0.15528 -0.06236 0.18423 0.33303 -0.21489 0.11259 0.28908 0.47464 0.7767 0.4124 0.35303 -0.60982 0.59452 0.57774 -0.7063 0.1591 -0.06904 -0.41443 0.39045 0.17174 -0.33016 0.77229 -0.52509 0.56631 -0.16057 -0.20354 1.3527 0.12409 -1.0299 -0.36245 0.35501 -0.12347 -0.3419 -0.44875 0.20474 0.54327 -0.10754 -0.20482 0.39036 -0.50943 0.48358 -0.092086 0.54735 -0.47765 -0.6131 -0.14245 0.56048 -0.59427 -0.22801 -0.34713 0.44872 0.24069 -0.35284 -0.28369 -0.25284 0.41931 -0.21906 0.26283 0.49633 0.021483 -0.38035 0.032747 -0.62983 0.34645 0.3984 0.033733 -0.53735 -0.53002 0.60299 -0.30998 -0.20893 -0.23805 0.40775 0.60272 0.21395 0.24694 -0.54962 0.095581 -0.59666 -0.57815 0.70532 -0.2799 -0.028554 -0.79789 0.10026 -0.0098517 0.14074 -0.12839 -0.11622 0.26606 -0.37408 -0.43577 -0.55839 0.10536 0.48068 0.15723 -0.073954 -0.66641 0.33324 0.3729 0.14164 -0.26424 -1.0433 -0.28033 0.10178 0.14925 0.31546 -0.28397 -0.16429 -0.20931 -0.37658 -0.074051 0.30148 -0.39673 -0.019015 0.40752 -0.20591 0.24792 -0.27239 -0.57486 -0.31141 -0.1532 -0.19982 -0.41571 0.21296 0.20983
uniform -0.44696 -0.13148 0.11385 -0.12999 -0.8326 0.075094 -0.10979 0.66712 -0.21197 -0.99786 -0.36439 0.44654 -0.58819 0.15459 -0.38645 0.13782 0.2305 -0.62407 -0.40558 -0.24666 0.16921 -0.050882 0.1409 -0.047303 0.083937 -0.13592 0.0099734 0.13618 0.021102 0.17733 0.0009538 -0.22565 -0.053064 0.049517 -0.38294 0.60341 0.13865 -0.20549 -0.246 0.35002 0.22598 -0.72519 0.16 -0.25841 -0.28346 0.063798 -0.24531 -0.20104 0.0057438 -0.82788 -0.52457 -0.52271 0.019064 0.45951 0.15345 -0.66786 -0.25133 -0.25907 0.20378 -0.11804 0.03174 -0.37771 -0.095413 -0.22077 -0.60755 -0.42499 -0.074795 -0.15717 0.0015048 0.67198 0.35375 0.0066464 -0.35107 0.3245 -0.37824 0.78966 0.1058 0.1443 -0.0035385 0.23718 0.20489 0.31487 -0.26954 -0.10572 0.3092 0.23537 0.1322 -0.34212 -0.25686 0.44113 -0.39927 0.12814 -0.14347 -0.0069801 -0.35062 0.19771 0.039735 0.034673 0.34069 -0.1396 0.42824 0.64772 -0.20344 0.25005 -0.19579 0.38054 0.1661 0.43849 -0.29971 0.17912 0.086597 0.1902 0.047097 -0.0192 -0.5884 0.34085 0.075787 0.021461 0.11413 -0.14056 0.55642 0.7849 0.85573 0.24564 -0.56689 -0.044321 0.41438 0.046998 0.069469 -0.011989 -0.23874 -0.42385 -0.10419 0.041772 0.22703 0.34245 0.31097 -0.48962 0.49749 0.12551 0.22451 0.15085 -0.41058 0.22882 -0.12428 0.34956 -0.33087 0.25612 0.68387 0.37164 -0.11634 -0.3453 0.40328 -0.45332 0.26911 -0.65311 -0.28378 -0.55439 0.27625 0.025897 -0.14937 -0.42988 -0.34569 -0.092485 0.53838 -0.33546 -0.010554 0.95879 -0.21895 0.3414 0.2585 -0.21876 -0.14712 0.24968 -0.087888 -0.39297 0.60478 0.15554 0.13452 -0.00089511 -0.18007 0.0015192 0.011401 -0.095073 0.039976 0.26273 0.42261 0.54116 -0.070771 0.43929 0.1384 0.46522 0.22 -0.19106 0.11377 -0.09449 -0.58859 0.1019 -0.33625 -0.32361 0.33301 0.35175 0.7142 0.055256 0.84528 -0.077773 0.53026 0.068135 -0.11416 0.16942 -0.017909 -0.17105 -0.33237 0.051799 0.11517 0.03603 0.58211 0.0030218 0.015131 -0.62891 0.021759 0.38894 0.48863 0.38807 -0.12081 -0.017024 -0.053023 0.027326 0.21122 -0.42242 0.66039 0.47047 -0.080615 -0.11407 0.032612 -0.37976 0.32072 -0.33613 -0.232 0.64198 0.36232 0.20082 -0.025147 0.090891 0.0091058 0.024054 0.054524 -0.14515 0.20358 -0.54855 0.28346 -0.022603 0.19949 -0.42084 0.23934 -0.12929 -0.2487 0.19928 -0.1959 -0.50224 -0.62624 0.10496 0.7166 0.13081 -0.72381 -0.14601 -0.35622 0.13551 -0.293 -0.086013 -0.058249 -0.098992 0.26014 -0.15286 -0.60257 0.50955 -1.7958 0.29086 0.38357 0.060491 0.51406 -0.2698 0.21219 0.27209 0.076259 0.4719 -0.60628 0.33359 -0.020419 -0.32661 0.55744 0.020408 -1.0347 0.98273 -0.30619 0.19776 0.50144 -0.12177 0.78143 0.10438
cat -0.29353 0.33247 -0.047372 -0.12247 0.071956 -0.23408 -0.06238 -0.0037192 -0.39462 -0.69411 0.36731 -0.12141 -0.044485 -0.15268 0.34864 0.22926 0.54361 0.25215 0.097972 -0.087305 0.87058 -0.12211 -0.079825 0.28712 -0.68563 -0.27265 0.22056 -0.75752 0.56293 0.091377 -0.71004 -0.3142 -0.56826 -0.26684 -0.60102 0.26959 -0.17992 0.10701 -0.57858 0.38161 -0.67127 0.10927 0.079426 0.022372 -0.081147 0.011182 0.67089 -0.19094 -0.33676 -0.48471 -0.35406 -0.15209 0.44503 0.46385 0.38409 0.045081 -0.59079 0.21763 0.38576 -0.44567 0.009332 0.442 0.097062 0.38005 -0.11881 -0.42718 -0.31005 -0.025058 0.12689 -0.13468 0.11976 0.76253 0.2524 -0.26934 0.068629 -0.10071 0.011066 -0.18532 0.44983 -0.57507 0.12278 -0.064878 0.044456 -0.020999 -0.069838 -0.47329 -0.43074 0.39158 -0.047815 -0.93659 -0.55128 -0.1422 -0.15829 0.15623 0.070461 0.19892 0.18942 -0.19339 -0.46594 -0.028825 0.0056752 -0.0054038 0.43144 0.12257 -0.2611 0.04847 0.32244 -0.31064 -0.10559 0.97954 0.069626 -0.023187 -0.86293 0.48273 0.23649 -0.0034704 -0.18932 0.18588 0.023211 -0.30643 -0.35717 0.19605 -0.1584 -0.0058626 0.35248 0.036053 -0.53933 0.49435 0.45332 -0.18477 0.040648 -0.094517 -0.07116 0.74005 -0.11465 -0.26916 0.089765 -0.25205 -0.21469 -0.38847 0.32509 0.25773 -0.51764 -0.38457 0.028254 -0.21232 -0.27311 0.69178 -0.37681 0.14241 -0.24926 0.40314 -0.052916 0.07684 0.2135 0.10921 0.049658 0.02093 0.11953 0.28648 0.87791 0.085838 0.31983 0.51856 -0.22628 0.12402 0.48805 0.22111 -0.52021 0.0025106 -0.13305 -0.052565 0.32744 0.64985 0.072426 -0.52743 -0.20913 -0.27897 -0.10834 -0.10103 0.15299 -0.36681 0.082445 0.1739 -0.28099 -0.069136 0.7895 0.060571 0.38693 -0.16495 -0.21801 0.33288 -0.44568 -0.49892 -0.34438 -0.035606 -0.24239 -0.4747 -0.17254 0.071349 1.4091 0.46166 0.46546 -0.30979 0.37203 0.47897 -0.28872 -0.65515 -0.13629 -0.14287 -0.04843 -0.12786 0.18941 -0.037051 0.59471 -0.0051618 -0.0086009 -0.33313 0.288 -0.058965 -0.67275 0.15544 0.074187 -0.36441 -0.021285 -0.065337 0.13827 0.008395 -0.041113 0.29401 -0.10344 -0.052371 -0.63084 0.16311 0.052826 -0.021797 -0.28115 -0.078361 -0.38124 0.078089 0.38411 -0.34629 -0.4322 0.091731 -0.67867 -0.041138 -0.53981 0.10678 0.03343 0.81396 -0.19448 0.026248 -0.14215 0.2954 0.62738 0.26499 0.6191 -0.04113 0.12301 0.3158 0.10698 0.023654 -0.41355 0.034852 0.21361 0.045834 0.053415 -0.36421 0.19707 0.50916 -0.1949 -0.18788 -0.24449 -0.63397 -0.23125 -0.18823 -1.0601 0.47794 -1.0102 0.24604 -0.4876 0.79146 -0.11047 -0.21762 -0.6178 0.27815 -0.098169 -0.063205 0.066069 -0.69305 -0.25928 0.44591 -0.64198 -0.33084 -0.30154 -0.56359 0.60501 -0.09673 0.44444 0.22007
desk -0.73726 0.46152 -0.51172 -0.58037 -0.10295 0.29401 -0.34422 -0.067142 -0.4535 -1.1766 0.055335 0.89213 0.52849 0.39188 0.14841 -0.15376 0.028915 0.24661 -0.2142 -0.078447 -0.093872 0.1802 -0.00076101 -0.11687 -0.74894 0.20906 0.45106 0.05805 1.0347 -0.3385 0.0099668 -0.19623 -0.051176 0.18002 -0.87925 -0.15146 -0.45974 -0.58401 -0.21756 0.14563 -0.64148 -0.53298 -0.59543 0.13036 0.3463 -0.20622 0.16036 -0.35238 -0.11819 -0.094804 0.34426 0.11912 -0.097573 -0.2815 -0.1487 -0.088238 -0.1175 -0.040276 -0.36683 -0.26358 1.0549 0.21656 -0.14009 0.36542 -0.10907 -0.23113 -0.009484 0.64502 0.068046 -0.6389 -0.031785 0.010526 -0.64949 0.06313 -0.30684 0.38694 -0.22329 0.3451 0.59265 -0.75145 0.34533 0.63768 -0.39157 0.48393 0.068795 -0.19765 -0.49753 -0.085758 -0.37105 -0.10072 -0.012934 -0.94483 -0.047754 -0.090991 -0.20652 0.032048 -0.30669 -0.58137 0.69024 -0.4047 0.52233 0.45916 -0.12628 -0.10999 0.052018 -0.6498 0.48832 -0.021834 0.50176 0.19508 -0.37969 0.3587 -0.12619 0.20217 -0.76985 0.049413 -0.45151 -0.44144 -0.30651 -0.36399 -0.23597 -0.0023561 0.1459 -0.05528 -0.28736 0.3576 -0.40175 -1.4438 0.22803 -0.032183 0.63273 -0.23606 0.1941 -0.46802 -0.023702 -0.056135 0.071289 0.48634 0.29648 0.049501 0.10209 -0.041317 0.32379 -0.16607 -0.095743 0.085015 -0.46701 -0.044792 0.3325 -0.86899 0.45972 0.60408 1.1288 -0.80629 -0.51104 0.34208 0.01482 -0.21122 0.43273 0.094666 0.18039 0.17526 0.43775 0.67757 0.68182 0.34659 0.20331 0.095279 0.11068 -0.040369 -0.78067 -0.47878 -0.59889 -0.083177 -0.35767 -0.40083 -0.077626 -0.10833 -0.38595 -0.89378 -0.21775 -0.79002 0.49377 0.29792 0.24857 -0.52342 1.0591 0.35757 -0.33754 -0.25762 0.42904 0.40904 0.071436 -0.36409 0.2246 -0.36131 -0.25501 0.020542 -0.48375 0.095588 0.82852 -0.35312 0.12707 -0.11444 0.76296 -0.077675 -0.11896 -0.84816 -0.41422 -0.62967 -0.28394 -0.57839 0.14538 -0.20129 0.1817 -0.065852 -0.53339 -0.31587 0.032133 0.4114 -0.30534 0.18352 -0.25932 0.97104 0.12438 0.037377 0.1983 -0.077001 -0.16267 -0.39974 0.25316 0.010896 -0.2645 -0.094712 0.093119 0.14131 -0.20296 0.15099 0.070734 -0.08685 -0.21843 0.0769 -0.47322 0.52068 0.12511 -0.21521 -0.25058 0.0041207 -0.20415 0.4131 0.42498 -0.10485 0.031993 -0.14439 0.18825 -0.19493 -0.38361 0.043254 0.16871 0.10143 -0.44588 0.043908 0.70813 0.41133 0.59787 0.10012 0.54999 0.74137 -0.012018 0.4767 -0.62931 -0.3553 0.15884 -0.0028788 -0.14319 0.30066 -0.66378 0.9496 0.10676 -0.24442 -0.56617 -0.17447 -0.11724 -0.57485 0.39781 0.11048 0.1705 0.32132 -0.71031 -0.55795 0.39966 -0.0039076 -0.19228 -0.0097448 0.10771 0.19299 0.28979 -0.17377 -0.62512 0.69212
chest -0.47018 0.13719 -0.092764 -0.21296 0.0093641 -0.04494 -0.12205 -0.34245 0.016766 -0.77219 -0.29311 -0.19066 -0.29202 0.28089 -0.19181 1.1869 -0.46576 0.056468 -0.61591 -0.025304 -0.065245 -0.50267 -0.35192 -0.59357 -0.32869 -0.10792 0.40074 -0.38376 0.51854 0.27811 0.096593 0.76903 0.23107 0.097999 -0.81877 -0.040741 -0.28878 0.16515 -0.26537 0.82846 0.034227 -0.37695 0.11331 -0.36843 0.61165 0.50004 0.39831 -0.36885 0.36399 0.27739 -0.14051 -0.21589 -0.077551 -0.15111 -0.49956 -0.31077 -0.14187 -0.12701 0.37872 0.3489 0.15179 -0.079904 0.32733 0.1399 -0.077583 -0.74352 -0.15796 -0.68796 0.41274 -0.031829 0.2788 -0.10401 0.16953 0.6262 0.45442 -0.4305 0.16748 -0.21942 -0.035857 -0.055169 0.22674 0.071312 0.29625 -0.13491 -0.10858 0.44941 0.077625 -0.33267 -0.62014 0.11615 0.50667 0.17667 -0.39046 0.21407 -0.23394 0.056604 -0.21142 -0.030631 0.65984 -0.23146 0.29086 0.34467 -0.22752 0.10212 0.077693 0.30586 0.051575 -0.14763 -0.28485 0.24407 -0.79142 0.60125 -0.25609 0.086633 -0.011476 -0.22353 -0.75785 -0.074867 0.12554 -0.69262 -0.62696 -0.30621 -0.31517 -0.035026 0.19929 0.42379 -0.38197 -0.36534 0.25903 -0.45476 0.42749 -0.12275 0.038512 0.091196 -0.37547 -0.010413 -0.013522 -0.084808 0.26684 0.67915 0.45726 -0.037945 -0.43537 0.30754 -0.25057 0.36344 0.010171 -0.27577 -0.18292 0.28293 -0.014824 0.3249 0.6737 -0.34494 0.25789 0.028165 -0.13887 -0.075914 0.15245 0.20098 0.42119 0.14239 -0.051427 -0.35377 0.77247 -0.1714 -0.036701 0.20866 0.3113 0.17333 0.033919 0.46908 0.364 -0.53626 0.083045 -0.10489 -0.38429 0.35895 0.037481 -0.69564 -0.79432 -0.51446 0.35806 0.56613 0.044115 -0.093579 0.60726 0.30437 -0.11985 -0.085769 0.75123 0.16366 0.32133 0.23663 -0.36656 0.55201 0.28286 -0.29888 0.012591 1.0992 0.82172 0.15196 -0.10984 0.31101 0.02335 -0.015876 -0.82304 0.058481 -0.18175 -0.052763 -0.050456 -0.49662 -0.24795 -0.24958 0.67263 -0.34283 0.21406 -0.76781 -0.31906 0.33309 -0.66584 0.2088 0.38254 -0.057671 -0.22186 0.90963 -0.67542 -0.26022 -0.058938 -0.20057 -0.04572 -0.0035942 0.032475 -0.28252 -0.30094 -0.59162 0.014319 -0.45921 -0.22549 -0.58527 0.30356 -0.4527 -0.060136 0.035673 -0.14028 -0.18738 0.15654 0.074906 -0.50152 -0.29348 -0.022284 0.52961 0.55532 -1.0997 0.22378 0.11604 -0.24043 -0.35234 -0.37723 0.35701 0.057717 0.10621 -0.0060443 0.17117 -0.060955 0.61778 -0.36156 -0.07156 -0.75798 0.40581 -0.40197 -0.17738 0.55881 -0.10153 -0.32441 -0.27868 -1.2148 0.16893 -0.58856 0.531 -0.036588 0.10556 0.59919 0.60292 -0.01526 0.66613 -0.47237 -0.24088 0.099873 -0.51794 -0.092156 -0.049406 -0.20954 -0.082483 -0.20572 -0.053083 0.21969 0.18094 0.24635 -0.042494
pepper -0.1749 0.34056 -0.012343 -0.093205 -0.55568 -0.66232 -0.33138 0.58347 0.46384 -0.079498 0.22976 -0.1763 0.3735 0.46009 0.23794 0.16021 -0.48823 1.147 -0.43266 -0.21347 -0.57438 0.15006 -0.19348 -0.16298 0.0032807 -0.13728 -0.23563 0.56829 -0.92796 -0.8483 -0.64001 -0.34034 -0.27386 0.50932 -0.43831 0.46755 0.24585 -0.27656 -0.027477 -0.44961 0.35489 -0.53355 0.033939 0.08545 0.98242 -0.29024 -0.268 0.59367 -0.34749 0.42405 0.21378 -0.20351 -0.33617 0.31179 0.1495 0.41172 -0.46857 -0.40717 0.56649 -0.84616 0.40612 -0.069409 0.13526 0.5081 0.087267 0.086265 -0.61156 0.20428 0.50208 -0.53073 0.27685 -0.32854 0.12948 0.73854 -0.53028 0.38396 0.93751 0.20063 -0.27632 -0.41845 -0.34508 0.29786 0.02632 -0.077284 0.23061 -0.32622 -0.068326 0.10144 -0.54359 -1.3071 -0.038602 -0.10167 0.18587 0.0094165 0.02956 0.47622 0.098957 0.4948 0.31931 0.57711 -0.19408 -0.14723 0.10507 -0.70243 -0.63899 0.015403 -0.039043 0.38303 -0.51684 0.07152 0.63442 0.041587 0.16432 0.10607 -0.12261 -0.33644 -0.61515 0.85386 0.56355 -0.035892 -0.99451 -0.072779 -0.18056 -0.38039 -0.41227 0.15149 0.7998 0.084648 -0.15963 0.46783 0.47749 1.1393 -0.45994 0.36412 -0.10434 -0.069476 -0.10624 0.35406 -0.33028 0.84668 0.33913 0.32876 -0.80483 0.40623 -0.48081 0.5256 0.22159 0.36469 0.61788 -0.30426 -0.31441 0.50487 0.353 0.22623 0.033824 -0.56084 0.098135 -0.855 -0.95331 0.18323 0.77997 0.18853 0.2528 -0.46426 -0.2169 -0.44531 -0.34545 0.74137 -0.22253 -1.1137 0.38253 -0.15099 -0.046698 0.14514 0.16727 0.15471 0.2654 -0.20341 0.52905 -0.093745 0.0023559 0.56728 0.20572 -0.29291 -0.43956 -0.77856 0.54954 0.49961 0.2081 0.46292 -0.15588 1.0562 -0.40994 0.31637 0.39485 0.34187 -0.0038794 0.36859 0.88414 0.15888 0.17793 -0.21783 0.4363 0.49568 -0.43668 0.52873 0.89282 -0.031651 0.092473 -0.42162 0.94699 -0.21615 -0.22329 -0.24135 0.26144 -0.39557 1.1386 0.15392 0.47204 -0.22582 -0.30214 0.066524 -0.1264 -0.089895 -0.062855 0.33913 -0.10863 -0.19146 -0.08051 -0.24015 0.020558 0.24056 -0.23816 -0.18391 0.035204 0.82207 0.04831 0.13432 -0.96453 -0.64318 -0.13961 -0.074543 -0.60208 -0.088524 -0.074558 -0.035986 0.35815 -0.54604 0.17216 -1.4025 0.578 -0.32413 -0.13947 -0.18967 0.35967 0.792 0.036737 -0.073148 -0.39677 0.28779 0.34281 -0.035422 0.12216 -0.71847 -0.077023 -0.018653 -0.42246 0.0099537 0.10573 0.039301 0.24544 -0.19051 0.12434 0.23725 0.2782 0.89383 -0.66335 0.03936 -0.97963 -0.26905 -0.15684 -0.033267 0.52172 0.10272 -0.0016267 0.27807 0.045708 -0.44552 0.004043 0.43825 -0.34434 0.23527 0.40686 0.17231 -0.45052 -0.32904 0.036687 -0.20682 -0.10364 0.45998
fence 0.34519 -0.024951 -0.45915 -0.018335 -0.23564 -0.1148 0.17203 -0.27759 -0.30252 -0.6962 -0.11714 0.50072 0.23673 -0.4908 -0.078199 0.45221 -0.73404 0.11896 0.18849 0.61232 0.24808 -0.22301 0.13497 -0.36014 0.11477 -0.42703 0.086462 0.58555 -0.11084 0.27767 0.27807 0.26635 -0.16459 0.32018 0.070067 -0.13547 0.10945 -0.396 0.036045 0.068194 0.10715 0.11495 -0.24044 -0.474 -0.36332 0.56154 -0.16705 -0.21397 0.16499 0.12969 -0.73361 -0.0005035 -0.32844 -0.14785 0.0084928 -0.013457 -0.28701 -0.71687 -0.3738 0.11902 0.52576 0.18391 0.28112 -0.083589 0.45388 -0.3019 0.21341 0.31628 0.50811 -0.19028 -0.20827 0.16576 -0.039588 0.35313 -0.48194 -0.10445 -0.086951 0.2571 0.14748 -0.27317 0.42972 -0.07298 -0.054233 -0.10938 0.10785 0.15223 -0.23063 -0.23227 0.29243 -0.10978 0.36552 0.1149 0.19686 0.25931 -0.32153 -0.32956 -0.34361 -0.34537 -0.74658 -0.48174 -0.29242 0.42001 0.22549 -0.39954 0.24827 0.10818 0.39785 0.25884 0.12498 -0.20648 -0.70515 -0.33202 -0.20807 -1.0319 0.37485 0.43579 0.13402 0.072744 0.16036 -0.35739 0.36221 -0.26971 0.089788 -0.39224 -0.24962 -0.2746 0.31885 -0.061854 -0.26482 -0.23529 0.285 0.71844 0.11328 0.82575 -0.19608 0.1667 0.28692 0.38145 -0.43957 -0.66163 -0.3482 0.073336 -0.19468 -0.6495 -0.83228 0.17206 0.28058 -0.2588 -0.13493 -0.086764 -0.45894 0.18548 0.0091183 -0.25489 -0.099977 -0.40256 -0.079792 0.10792 0.07289 0.54903 0.2704 0.38004 0.26729 -0.74565 0.46076 0.15182 -0.088438 0.50801 0.076947 -0.1434 -0.057375 -0.2685 0.91428 -0.65236 -0.0099352 -0.18217 -0.34694 0.68607 0.14769 -0.94369 0.33624 -0.28534 0.040336 0.49029 -0.041705 0.047875 0.21449 0.10823 0.50796 0.79269 -0.18459 -0.017113 0.023005 -0.57456 -0.38119 -0.071346 -0.01275 -0.17782 0.38141 -0.057494 0.86957 0.11856 -0.1443 -0.05314 0.11252 0.16867 0.87169 -0.55363 0.30758 0.58115 0.27688 0.29808 -0.10217 -0.37296 -0.37326 0.23813 -0.41838 0.32793 0.55693 0.56373 0.99916 -0.23758 0.49673 -0.2474 0.29722 -0.022724 -0.13019 -0.27261 -0.15172 -0.51994 -0.078639 -0.15095 -0.36333 0.49311 0.12342 -0.18168 -0.22832 -0.362 0.37155 0.022876 0.51747 0.027892 -0.25304 -0.026524 -0.43093 -0.34439 0.27899 -0.02971 0.52813 -0.30892 -0.4292 -0.19277 0.3731 -0.43047 0.93236 0.12698 0.18105 -0.66223 0.17049 0.22604 0.58726 -0.093238 0.34948 -0.3163 -0.54969 0.24342 0.0012355 -0.3842 0.076731 0.065985 0.17858 -0.1186 -0.1271 -0.68233 -0.49498 -0.0064435 -1.7973 0.33471 -0.42146 0.29321 0.54499 -0.59975 -0.23127 0.23839 -0.090049 -0.027363 0.85036 0.080119 -0.092099 0.18776 0.72076 -0.31409 -0.48139 -0.0074851 0.12063 0.11877 0.10929 -0.12118 0.42061 0.17885
organ -0.21095 0.14688 -0.5579 -0.54762 -0.091433 0.14881 0.56352 -0.39812 -0.66961 -0.69988 -0.21545 0.41232 -0.090739 0.22501 0.29319 -0.80911 -0.18266 -0.15649 -0.30998 -0.12809 0.39444 0.7876 -0.26239 0.31922 -0.92398 0.59981 0.47994 0.41974 0.010277 0.016281 -0.51669 0.54475 -0.83178 0.42029 0.15471 -0.027613 0.44794 -0.37966 -0.1733 0.17327 -0.1901 0.72455 -0.021855 -0.088541 0.18571 0.59932 0.94048 -0.047163 -0.068907 0.1245 -0.13286 1.1339 -0.13235 0.3962 -0.23117 -0.43421 0.13126 0.83454 -0.62245 0.53483 0.237 0.25004 0.63042 0.16093 0.086832 -0.38225 0.72405 -0.023046 0.076204 0.78837 0.66852 0.091112 0.32694 0.52173 0.15576 -0.14591 -0.20011 0.46944 0.17419 0.16997 -0.4064 0.31652 -0.22033 -0.24506 -0.051513 0.58739 -0.40646 0.20982 -0.20143 0.29215 0.49962 -0.031077 -0.19215 0.35242 0.54916 0.2628 0.14978 -0.627 -0.063954 -0.030243 -0.21042 0.20146 0.37261 -0.59002 0.20396 0.15121 -0.17008 0.57752 -0.28486 0.25741 -0.088021 0.41618 -0.28613 0.76192 -0.16718 -0.14163 0.27276 0.42622 -0.80236 -0.26629 -0.023773 -0.36016 0.06447 -0.12999 0.083809 -0.60007 -0.035371 -0.22023 -0.15505 0.41903 0.17506 0.14796 0.27649 -0.58901 -0.41197 0.22099 0.14476 0.11129 -0.46262 0.4069 0.41443 -0.24458 0.30099 -0.63472 0.046395 -0.054975 0.13898 -0.32138 -0.30887 0.2185 -0.30348 0.38052 0.13381 -0.28079 -0.46383 0.28654 0.14606 0.45225 -0.85852 0.89248 -0.24555 0.52396 0.22595 -0.27112 -0.3785 0.30509 0.047098 -0.79337 0.97318 0.2713 0.087544 0.41304 0.16055 0.042958 0.054099 0.25349 0.2601 0.16655 -0.8427 0.075947 -0.31577 0.81678 -0.41166 0.27481 -0.077431 -0.68744 -1.0819 -0.22389 -0.55077 -0.1188 0.15187 -0.17052 0.15119 0.34863 0.1325 0.23157 0.61966 -0.093453 -0.44639 -0.18519 -0.055366 0.76494 0.35373 -0.86484 -0.45502 0.38029 -0.81437 -0.22288 0.27219 -0.1206 0.54503 0.17806 0.21917 0.036802 0.19287 0.30958 0.23533 -0.20329 -0.031437 0.62245 -0.93283 -0.68826 -0.64953 -0.17098 -0.67 -0.2009 -0.6131 0.4464 0.55308 0.42552 0.58121 -0.006454 -0.24638 -0.33003 -0.033291 -0.1185 0.031019 -0.1404 -0.4606 -0.52005 0.0067974 -0.67698 0.27946 -0.19766 -0.48367 0.041977 0.26932 0.66955 0.26998 0.071901 0.24858 -0.096473 0.10579 -0.26711 0.12524 -0.012197 0.38162 0.20694 0.81028 0.1843 -0.42674 -0.40405 0.2328 0.39913 0.3945 -0.77519 -0.11484 0.43019 -0.40552 -0.47719 -0.077098 0.0053997 0.24103 -0.48632 -0.14427 0.46538 -1.5859 0.049191 0.19985 -0.00079946 0.262 -0.2805 0.056209 0.031566 0.48289 0.53119 -0.54184 0.64558 -0.034225 -0.22475 -0.31609 -0.45288 0.10926 0.10812 -0.07281 -0.036834 0.26804 0.2088 0.0054059 -0.20835
coat 0.033258 -0.43096 -0.057869 -0.4051 -0.0048209 -0.35262 -0.37576 -0.024196 0.27134 -1.044 0.041621 -0.080501 -0.17119 0.33866 0.067598 0.2361 0.2072 0.11742 0.02793 -0.64869 -0.64638 -0.40874 0.61836 0.65263 0.091687 -0.65062 0.50627 0.58326 -0.22704 -0.44452 0.43415 -0.074509 -0.32175 0.34691 0.056705 0.5999 0.18929 0.093928 -0.66894 0.50048 -0.28554 -0.92748 0.078794 -0.042132 0.73489 -0.20796 0.12732 -0.14063 -0.1738 -0.094068 -0.48621 -0.11345 0.5636 -0.058981 -0.21907 0.17524 0.0044797 -0.44299 0.36776 0.14265 0.35015 0.1883 0.0021281 -0.0082477 0.32422 -0.5783 -0.39751 0.21793 0.27422 0.02994 0.38415 -0.14993 0.18224 -0.43456 -0.39703 0.26508 -0.024196 0.23746 -0.15455 -0.44258 -0.024225 0.35267 0.072055 -0.3278 0.36085 -0.10343 -0.13367 -0.18573 -0.62927 0.05018 0.068539 -0.24574 0.13681 0.077165 -0.62514 -0.00067744 0.13089 0.78084 0.22333 0.60303 0.34009 0.24444 -0.1437 0.10514 0.096916 -0.10392 0.18826 -0.00047336 -0.19232 0.98136 0.5808 0.79367 -0.14301 -0.075578 -0.30111 0.41788 -0.65203 0.47015 0.25541 -0.5964 -0.39029 0.10637 0.87716 0.27089 -0.061702 -0.21243 0.27584 0.65904 0.18556 0.40603 0.30904 0.070378 -0.70211 0.91661 0.073784 -0.081896 -0.26199 0.28981 0.31539 0.48425 -0.043838 0.18091 -0.39834 -0.057047 0.20235 0.39478 -0.069515 0.11421 0.38515 0.27382 -0.070725 0.60265 -0.82293 -0.76086 -0.051093 0.081591 -0.26129 -0.3374 0.16258 0.57301 0.18702 0.04914 -0.48928 -0.12185 0.11753 -0.19665 0.15842 0.42115 0.52238 -0.37151 -0.11433 -0.27559 -0.12233 0.37311 0.30515 0.019198 0.35389 -0.24319 -0.60998 -1.2091 0.26655 0.2721 0.38498 -0.11009 0.37809 -0.02607 0.85769 0.10325 -0.5168 -0.093759 0.05406 0.45771 -0.22436 -0.11529 -0.030691 -0.42908 -0.23431 0.29292 -0.32908 -0.099491 0.79404 -0.28185 0.30518 0.20051 0.48026 -0.21887 0.30484 0.1999 -0.32947 -0.20559 0.53393 -0.24369 -0.18614 0.11889 0.37784 -0.45444 0.74594 -0.47566 0.22109 -0.58483 -0.048876 0.082401 0.28836 -0.23331 0.14142 -0.21155 0.18242 -0.3193 0.27111 -0.24837 0.63123 0.19477 -0.43663 0.43436 0.12604 0.086425 0.41219 -0.40386 -0.38646 0.63508 0.50137 -0.15086 -0.33777 0.15017 -0.84961 0.49419 -0.078985 -0.42761 0.047857 -1.1917 -0.3315 0.24169 0.29558 -0.67576 0.77889 0.19178 0.049075 0.22618 -0.22225 -0.1647 -0.26056 -0.11768 0.45974 0.33882 -0.3517 0.22335 -0.27577 -0.17744 -0.37925 -0.25759 0.046144 -0.50231 0.17796 -0.37442 -0.4879 -0.058662 -0.77804 -0.43129 -0.68925 0.0040151 0.47132 0.43169 0.073517 -0.15229 -0.81243 0.7384 0.14448 0.38852 0.3379 -0.20303 0.28356 -0.13236 -0.25252 0.54535 0.19644 -0.37775 0.36085 0.46415 0.70419 0.59202
widow -0.55223 -0.42236 0.0054396 -0.12179 0.40206 -0.028857 -0.0024821 -0.41656 -0.22084 -0.037664 -0.34524 -0.75863 0.057949 -0.32509 0.060314 0.040079 0.22851 -0.39708 0.076433 -0.16544 -0.13156 0.43326 0.010476 -0.1679 -0.093939 0.14909 0.037607 0.49343 -0.29233 -0.20953 -0.29116 0.69686 0.4085 -0.02074 -0.19005 -0.23623 0.27584 -0.11657 0.17512 -0.073294 0.56625 0.17696 0.27772 0.42163 0.31157 -0.48064 0.56304 0.17466 -0.089985 -0.18941 0.16508 0.18128 -0.067302 -0.045041 0.035095 -0.099093 -0.057223 -0.36129 0.64527 -0.91351 -0.21759 -0.083175 0.19434 0.21224 0.33006 -0.74261 0.12886 -0.75719 -0.076808 -0.22854 0.16932 -0.59146 -0.11929 0.51167 0.22191 -0.091186 0.017629 -0.58204 -0.13059 0.092019 -0.21527 0.44277 0.29466 0.14039 -0.12814 0.097434 0.63737 0.047682 -0.28746 -0.21966 0.11664 -0.17682 -0.43774 0.30858 0.23704 0.20402 -0.082451 -0.32083 0.23255 0.089338 0.38521 -0.324 0.083634 0.22357 -0.1092 0.13431 0.41249 -0.22518 0.30587 -0.88321 0.063174 1.2088 0.45902 0.052719 0.2306 -0.31684 0.37112 0.28234 0.39596 -0.68291 0.16106 0.74229 -0.16565 -0.6102 0.10701 -0.0017901 0.41168 -0.26684 0.23612 -0.31771 -0.23179 0.12988 -0.38231 0.25692 0.027299 -0.069576 -0.40614 0.017187 -0.54871 0.27329 0.46012 0.159 -0.033576 0.3645 -0.18326 0.015658 -0.055269 0.24975 0.15983 -0.14955 -0.19519 -0.36238 0.1771 0.37311 -0.0093057 0.3939 0.22296 -0.27986 0.61873 -0.33659 -0.066307 0.23415 0.95588 0.58377 -0.41986 -0.069911 -0.27562 0.034238 -0.27757 -0.30429 -0.21544 0.27617 -0.31241 -0.27018 -0.59668 -0.15361 -0.12991 -0.42564 0.35995 0.47439 0.27721 0.57157 0.12536 0.227 -0.027496 0.18853 -0.75619 -0.16379 -0.37294 0.36335 0.26404 -0.24331 -0.26839 -0.16222 -0.42283 0.31327 -0.080931 -0.11023 0.29864 -0.50698 0.89552 -0.071463 0.081227 -0.12135 0.65854 -0.15526 -0.12875 -0.26652 0.33951 -0.2038 0.12967 -0.44663 0.24666 -0.71471 0.04522 0.024544 0.15232 -0.48327 0.055114 -0.038673 -0.31663 -0.17232 0.2929 0.13486 -0.72402 0.4971 0.21393 -0.013905 0.076288 -0.015009 -0.27209 -0.34587 -0.19859 0.47158 -0.079626 0.16071 -0.21676 0.56923 -0.09409 -0.085942 -0.14752 -0.27036 0.45732 0.12949 -0.13493 0.38921 0.25344 -0.57162 0.27234 -0.092328 -0.38383 -0.0041367 -0.062705 0.21506 1.2829 0.040783 0.67175 0.089301 0.69377 -0.54146 0.012032 -0.13377 0.25475 0.30125 -0.14473 0.37087 -0.068214 0.11929 0.48867 0.036411 0.34404 -0.4078 0.42721 -0.42613 0.0057588 0.0052675 -0.52883 -0.36223 0.38958 0.19679 -0.049858 0.3586 0.53304 -0.36927 -0.43675 0.39925 -0.25472 0.55027 -0.035269 -0.11544 0.41551 -0.027734 0.69205 -0.10108 -0.69763 0.061868 0.45672 0.32671 -0.16871 0.71907
lion 0.2918 -0.30451 -0.18643 -0.12456 0.59852 0.543 0.16806 1.0792 -0.055115 -0.20401 -0.10764 -0.81728 -0.20518 0.52162 0.37358 0.075588 0.44998 0.19819 -0.017366 -0.43582 -0.39421 0.46885 0.48778 0.48085 0.088282 -0.21437 0.10376 -0.15115 0.14854 0.65517 0.0078932 -0.85667 -0.024476 0.10032 -0.68263 -0.39281 0.34664 0.30954 -0.68735 0.347 -0.078671 -0.21691 -0.43452 0.30331 -0.63428 -0.53864 0.2968 0.028856 0.37429 0.12612 -0.34203 -0.50055 0.10103 0.21551 0.28844 0.36301 0.64173 0.61683 0.035685 0.062093 -0.59562 0.011796 0.28576 0.023435 0.26298 0.018569 -0.31712 -0.5706 0.47154 0.37222 -0.0045898 0.66711 -0.082827 -0.29561 -0.12853 0.030765 0.96881 -0.68716 0.48061 0.36829 -0.18897 -0.20625 0.27453 -0.39031 0.33459 -0.75571 -0.78571 0.29459 -0.42137 -0.12267 0.31957 -0.31974 0.093507 0.53365 -0.52738 -0.1164 0.39485 0.046959 -0.41141 0.2181 0.41542 -0.011437 0.4828 -0.60066 -0.070839 -0.1802 -0.065851 0.30837 0.38013 0.35451 0.2987 0.19086 -0.39066 0.093808 0.31324 -0.072191 -0.41464 0.072187 -0.4942 -0.23062 -0.75664 -0.18435 -0.14979 -0.46103 0.094952 -0.32249 -0.24378 0.54669 0.023224 -0.97776 0.11374 -0.28193 0.02501 0.35962 0.028395 0.26651 -0.087579 0.16623 0.019811 0.34265 0.19318 0.42292 0.038453 0.021604 -0.055174 -0.47037 0.28176 0.028578 -0.16849 -0.066871 0.10789 0.4434 -0.1106 -0.50291 0.28416 0.13703 0.10203 0.033938 -0.38471 0.20607 0.87007 -0.070646 0.42266 0.3492 -0.19731 0.41284 -0.16412 -0.0093516 -0.07349 -0.18583 0.35239 -0.020726 -0.086157 -0.50965 0.26578 -0.54288 0.12369 -0.20834 0.1998 -0.14241 -0.34947 -0.012296 0.066445 0.078111 0.59647 -0.17405 0.10879 0.21399 0.10741 -0.35675 0.20768 0.035145 -0.033915 -0.26728 -0.12101 0.23198 -0.53638 0.038909 -0.34829 0.076598 1.673 -0.15137 0.047546 -0.54214 -0.077142 0.33608 -0.46805 -0.27351 -0.18291 -0.3938 0.012281 -0.35306 0.01016 -0.41372 -0.0072879 -0.17172 0.17931 -0.10434 -0.40169 -0.2849 -0.29282 0.39859 0.095493 0.0099619 -0.22196 -0.7239 -0.18609 -0.33079 0.154 -0.42711 -0.65934 -0.37767 -0.6419 0.30267 0.10078 -0.018165 -0.23503 -0.5315 -0.011697 0.032843 -0.44731 0.080893 -0.2122 0.26788 -0.99822 -0.23135 -0.36665 -0.2854 -0.63003 -0.12093 -0.31986 0.55072 0.23735 -0.12833 1.0004 -0.03759 0.054402 -0.24086 -0.13959 -0.19617 0.52513 -0.32792 0.44127 -0.25815 -0.32045 0.35269 0.47981 -0.11676 -0.099235 0.04113 -0.001675 -0.2887 -0.1314 -0.36463 -0.5793 -0.34977 -0.48147 -0.23359 -0.34093 0.19555 -0.5434 0.3392 -0.082866 0.13833 -0.48501 0.43223 -0.22105 0.041134 0.35273 -0.81733 -0.10987 0.049104 -0.38667 -0.076759 -0.50593 -0.13403 -0.20975 0.47237 0.22249 -0.091329
